{"type":"LSTM","options":{"inputSize":19,"inputRange":19,"hiddenLayers":[20,20],"outputSize":19,"decayRate":0.999,"smoothEps":1e-8,"regc":0.000001,"clipval":5,"maxPredictionLength":100,"dataFormatter":{"values":["contento",["0"],"feliz",["0"],"triste",["1"],"desganado",["1"]],"indexTable":{"0":5,"1":12,"c":0,"o":1,"n":2,"t":3,"e":4,"f":6,"l":7,"i":8,"z":9,"r":10,"s":11,"d":13,"g":14,"a":15,"stop-input":16,"start-output":17,"unrecognized":18},"characterTable":{"0":"c","1":"o","2":"n","3":"t","4":"e","5":"0","6":"f","7":"l","8":"i","9":"z","10":"r","11":"s","12":"1","13":"d","14":"g","15":"a","16":null,"17":null,"18":null},"characters":["c","o","n","t","e","0","f","l","i","z","r","s","1","d","g","a","stop-input","start-output","unrecognized"],"specialIndexes":[16,17,18]}},"input":{"rows":20,"columns":19,"weights":{"0":-0.07542016357183456,"1":0.4222375750541687,"2":-0.2798846960067749,"3":-0.2278534471988678,"4":-0.2699439525604248,"5":-0.3727255165576935,"6":0.7019216418266296,"7":-0.13512665033340454,"8":0.39120760560035706,"9":0.2641783058643341,"10":0.5463286638259888,"11":0.04565109685063362,"12":0.0394219271838665,"13":0.0959043800830841,"14":-0.6454344391822815,"15":0.32290300726890564,"16":-0.735141396522522,"17":1.1525585651397705,"18":0.3654111921787262,"19":1.7070953845977783,"20":-0.06080928072333336,"21":0.06425932049751282,"22":-0.760863721370697,"23":1.9002636671066284,"24":0.2927747070789337,"25":-1.6833454370498657,"26":0.032725684344768524,"27":1.8156988620758057,"28":-1.614058256149292,"29":-1.73947274684906,"30":1.5531994104385376,"31":0.42751345038414,"32":0.042880136519670486,"33":-0.05064327269792557,"34":0.05830203369259834,"35":-1.8404204845428467,"36":-1.8692896366119385,"37":1.412282109260559,"38":-1.403490424156189,"39":-0.5882011651992798,"40":0.7299069166183472,"41":-1.3859493732452393,"42":0.5986428260803223,"43":0.42068642377853394,"44":-1.5470565557479858,"45":0.899444043636322,"46":-1.0864427089691162,"47":0.8199411630630493,"48":-0.4025828540325165,"49":0.39479056000709534,"50":-0.9570175409317017,"51":0.7939059734344482,"52":0.5063629150390625,"53":0.4587379992008209,"54":1.477828025817871,"55":-0.2976002097129822,"56":-1.1819634437561035,"57":1.3818539381027222,"58":0.48781582713127136,"59":-0.42707130312919617,"60":-1.2006114721298218,"61":0.6608291268348694,"62":0.41600027680397034,"63":-0.7026219367980957,"64":-0.778168797492981,"65":1.236969232559204,"66":-1.3538304567337036,"67":-0.6483559608459473,"68":0.7792171239852905,"69":1.2077640295028687,"70":-0.6552587151527405,"71":-1.2238465547561646,"72":-0.642449140548706,"73":-1.2802599668502808,"74":-0.9724975228309631,"75":1.2371608018875122,"76":-0.4631541669368744,"77":-1.062817096710205,"78":1.1928138732910156,"79":0.18858422338962555,"80":-0.040435999631881714,"81":-0.9596559405326843,"82":0.507071316242218,"83":0.515447199344635,"84":-0.4692789912223816,"85":-0.22181731462478638,"86":0.28426796197891235,"87":-0.8672348260879517,"88":0.14372198283672333,"89":0.7225507497787476,"90":0.4874478876590729,"91":0.8313183188438416,"92":0.42942458391189575,"93":0.26074689626693726,"94":0.09566844254732132,"95":0.41457608342170715,"96":0.7672649621963501,"97":-0.7749643921852112,"98":-0.5001858472824097,"99":-0.06871067732572556,"100":0.1468961387872696,"101":-0.46686410903930664,"102":-0.7105152010917664,"103":0.4011554718017578,"104":0.01812955178320408,"105":-0.30482134222984314,"106":0.31464362144470215,"107":0.06163376569747925,"108":-0.6002359390258789,"109":0.63932865858078,"110":-0.5326876044273376,"111":-0.41416794061660767,"112":-0.08058669418096542,"113":0.09902843087911606,"114":0.025461051613092422,"115":-1.4293416738510132,"116":-0.06122870743274689,"117":1.7283270359039307,"118":1.3880467414855957,"119":-0.735028862953186,"120":-1.1357653141021729,"121":1.64131760597229,"122":-0.9707853198051453,"123":1.2482963800430298,"124":-0.5369610786437988,"125":1.185593843460083,"126":-1.062600016593933,"127":1.814512014389038,"128":0.5334031581878662,"129":1.2634638547897339,"130":1.067455530166626,"131":0.08142290264368057,"132":-0.8899179100990295,"133":0.33425372838974,"134":1.52243971824646,"135":-0.8310859799385071,"136":1.4211809635162354,"137":-0.709693431854248,"138":0.7980878949165344,"139":0.3874005675315857,"140":-0.9895585775375366,"141":0.14816738665103912,"142":2.1217474937438965,"143":0.020330749452114105,"144":0.13040970265865326,"145":-1.98261296749115,"146":-0.9162023067474365,"147":-0.1769464910030365,"148":-0.9111605882644653,"149":-0.16844962537288666,"150":0.8420109152793884,"151":-2.666931629180908,"152":-1.1740461587905884,"153":0.23639273643493652,"154":0.38969185948371887,"155":1.2610678672790527,"156":-1.922346830368042,"157":-1.602404236793518,"158":1.7797757387161255,"159":-0.507458508014679,"160":-0.7533155679702759,"161":1.1529964208602905,"162":1.6426146030426025,"163":-0.8086755275726318,"164":-1.8085296154022217,"165":-0.8519701361656189,"166":-1.3664735555648804,"167":-0.2805200219154358,"168":0.9892260432243347,"169":2.2448134422302246,"170":-2.2730138301849365,"171":0.8083771467208862,"172":-0.6310921311378479,"173":0.15828298032283783,"174":0.01215576846152544,"175":-0.2761068344116211,"176":-0.07786766439676285,"177":0.5542596578598022,"178":0.354244202375412,"179":0.8752570152282715,"180":-0.1647653579711914,"181":0.2366504818201065,"182":1.2048661708831787,"183":0.014528598636388779,"184":0.5440409779548645,"185":-1.5586508512496948,"186":-0.14679822325706482,"187":-1.10649573802948,"188":0.7107145190238953,"189":0.10743896663188934,"190":-0.42956769466400146,"191":-1.3680065870285034,"192":1.2533668279647827,"193":0.6521233320236206,"194":0.5270645022392273,"195":-1.6082847118377686,"196":1.6852071285247803,"197":1.222519874572754,"198":-0.22156889736652374,"199":-0.07186128944158554,"200":-0.8958121538162231,"201":-0.2793900966644287,"202":-0.34183818101882935,"203":1.208920955657959,"204":1.2421772480010986,"205":1.0599912405014038,"206":0.6609232425689697,"207":0.37022408843040466,"208":-0.3317601978778839,"209":-1.9812521934509277,"210":0.42958736419677734,"211":-0.45520511269569397,"212":1.0772267580032349,"213":-0.02691616676747799,"214":0.7054837346076965,"215":-0.6883571743965149,"216":-0.49979689717292786,"217":-1.5640438795089722,"218":-1.1434191465377808,"219":0.6764622330665588,"220":-2.222464084625244,"221":1.0504800081253052,"222":-0.7202206254005432,"223":0.9029359221458435,"224":-0.8208838701248169,"225":1.6189712285995483,"226":-0.8317129611968994,"227":0.9135557413101196,"228":2.1417407989501953,"229":0.5296333432197571,"230":-0.9790661334991455,"231":-1.7639154195785522,"232":1.040669322013855,"233":0.1806090623140335,"234":-0.42309388518333435,"235":-0.7906774282455444,"236":2.02836537361145,"237":-2.022324800491333,"238":-0.35710352659225464,"239":-0.9849342107772827,"240":1.9243881702423096,"241":-0.760173499584198,"242":-1.1305090188980103,"243":-0.7521552443504333,"244":-1.8451482057571411,"245":-0.33186468482017517,"246":1.9485074281692505,"247":-0.38000860810279846,"248":-1.1710747480392456,"249":0.5896751880645752,"250":1.4712246656417847,"251":0.18707109987735748,"252":-1.7994964122772217,"253":-0.24615886807441711,"254":1.2626302242279053,"255":-0.7099481821060181,"256":1.096743106842041,"257":-0.15604034066200256,"258":0.7334581613540649,"259":-1.2736437320709229,"260":1.250913381576538,"261":0.27595967054367065,"262":0.9208275675773621,"263":0.908815324306488,"264":-0.24401777982711792,"265":-1.1641427278518677,"266":-1.4885207414627075,"267":0.011099846102297306,"268":0.8087842464447021,"269":-0.32394158840179443,"270":2.084304094314575,"271":-1.0656346082687378,"272":-1.1003566980361938,"273":0.21701522171497345,"274":-1.6518746614456177,"275":0.8247370719909668,"276":-2.391197681427002,"277":1.9565961360931396,"278":-0.37662947177886963,"279":0.20236177742481232,"280":1.4414929151535034,"281":1.0026899576187134,"282":0.3315071165561676,"283":-1.5521528720855713,"284":-0.47794973850250244,"285":-0.16024979948997498,"286":0.8498927354812622,"287":-0.9207183718681335,"288":0.28045129776000977,"289":-2.7258126735687256,"290":1.3396817445755005,"291":1.6507664918899536,"292":-0.9585834741592407,"293":-0.536708414554596,"294":-1.7328625917434692,"295":3.0062572956085205,"296":-2.004662036895752,"297":0.7174922823905945,"298":-1.1082024574279785,"299":-0.8416895866394043,"300":-1.2307320833206177,"301":0.7241978645324707,"302":0.8605161905288696,"303":0.48464706540107727,"304":2.262942314147949,"305":-0.1639099270105362,"306":0.1633875072002411,"307":-1.3040367364883423,"308":-0.4321231544017792,"309":-0.4452158808708191,"310":0.9394594430923462,"311":0.02240920439362526,"312":0.9742463827133179,"313":-1.6708829402923584,"314":-0.40356874465942383,"315":-1.0693252086639404,"316":1.3088792562484741,"317":-0.6758416295051575,"318":-0.6938753724098206,"319":-0.10539771616458893,"320":-1.1802414655685425,"321":0.26325222849845886,"322":1.3320776224136353,"323":0.24737432599067688,"324":-0.0778287798166275,"325":-0.34791097044944763,"326":1.3220654726028442,"327":-0.3838089108467102,"328":0.15115225315093994,"329":0.8683921694755554,"330":-0.19775055348873138,"331":0.25362053513526917,"332":0.39674344658851624,"333":-0.2600657343864441,"334":0.1151181161403656,"335":-0.6521116495132446,"336":-0.04131467640399933,"337":-0.7503940463066101,"338":-0.6613789796829224,"339":-0.22267992794513702,"340":0.47865691781044006,"341":-0.752544105052948,"342":0.09016119688749313,"343":0.7044476270675659,"344":-1.2071712017059326,"345":-0.2914152145385742,"346":-1.0853033065795898,"347":0.08913439512252808,"348":0.6975417137145996,"349":-0.7671203017234802,"350":0.33924397826194763,"351":-0.4872968792915344,"352":0.8817334771156311,"353":-1.3070948123931885,"354":0.4252493977546692,"355":-0.6660807132720947,"356":0.052743930369615555,"357":-0.78605055809021,"358":-0.1190292239189148,"359":0.879249095916748,"360":0.29103466868400574,"361":-0.06761457771062851,"362":-0.051056571304798126,"363":-0.04241158813238144,"364":0.07317518442869186,"365":-0.03262954577803612,"366":-0.0013387249782681465,"367":-0.06049990653991699,"368":0.0628679171204567,"369":0.04937896877527237,"370":-0.05389973148703575,"371":-0.02861267514526844,"372":-0.0019795880652964115,"373":-0.028298912569880486,"374":-0.04756106063723564,"375":-0.01668502390384674,"376":0.007075662259012461,"377":0.07348529994487762,"378":0.05881665274500847,"379":0.07506027072668076}},"hiddenLayers":[{"inputMatrix":{"rows":20,"columns":19,"weights":{"0":0.35202714800834656,"1":0.6415720582008362,"2":-0.37822410464286804,"3":-1.2091095447540283,"4":0.14084835350513458,"5":-0.07941916584968567,"6":-0.2639363408088684,"7":-0.40378516912460327,"8":0.5199009776115417,"9":-1.227114200592041,"10":0.14792396128177643,"11":-0.7756357789039612,"12":1.0857768058776855,"13":-0.5108329653739929,"14":-0.20356328785419464,"15":0.04129255563020706,"16":-0.5687327980995178,"17":-0.10783489048480988,"18":1.0697404146194458,"19":-0.258118212223053,"20":0.1243734359741211,"21":-0.17972981929779053,"22":0.16691109538078308,"23":-0.516839861869812,"24":0.21347081661224365,"25":0.051855605095624924,"26":-0.13066253066062927,"27":-0.3453485071659088,"28":-0.1619385927915573,"29":-0.02320072054862976,"30":-0.5274363160133362,"31":-0.17227806150913239,"32":-0.30112919211387634,"33":1.1100900173187256,"34":-0.39607346057891846,"35":0.5268253684043884,"36":-0.14102579653263092,"37":-0.269349068403244,"38":0.026045458391308784,"39":0.043319836258888245,"40":-0.1980736404657364,"41":0.37855637073516846,"42":-0.052770063281059265,"43":-0.4677715003490448,"44":-0.45357954502105713,"45":0.09779378026723862,"46":-0.19422569870948792,"47":1.6287156343460083,"48":-0.4068194627761841,"49":0.6843427419662476,"50":-1.37183678150177,"51":-0.05474739149212837,"52":0.866767406463623,"53":-0.19460496306419373,"54":0.3737747371196747,"55":0.04117218405008316,"56":-1.556297779083252,"57":-0.05554841086268425,"58":-0.7865334749221802,"59":0.634345531463623,"60":1.537950038909912,"61":0.3630031943321228,"62":0.3547724783420563,"63":-0.16368210315704346,"64":0.9492892026901245,"65":-0.40901657938957214,"66":1.3437045812606812,"67":-0.6462501287460327,"68":0.9262265563011169,"69":-1.8758153915405273,"70":0.6311903595924377,"71":0.12918853759765625,"72":-0.034777868539094925,"73":1.0378367900848389,"74":-0.37193575501441956,"75":-2.027031898498535,"76":-0.15695373713970184,"77":0.6067185997962952,"78":-0.363020658493042,"79":-0.7422539591789246,"80":0.15578894317150116,"81":0.01159662939608097,"82":-0.2575955092906952,"83":-0.390630841255188,"84":0.11901897937059402,"85":-1.1498820781707764,"86":0.23775920271873474,"87":-0.8331894278526306,"88":0.9078855514526367,"89":-0.46866849064826965,"90":-0.09262487292289734,"91":-0.059722576290369034,"92":-0.13577900826931,"93":0.00647961487993598,"94":0.8358042240142822,"95":-0.4855459928512573,"96":0.7690680623054504,"97":-0.6017972826957703,"98":0.240645170211792,"99":-0.16576072573661804,"100":-1.7366772890090942,"101":0.41159990429878235,"102":-0.36133715510368347,"103":0.5034418106079102,"104":1.4609074592590332,"105":-0.03391381353139877,"106":-0.07764634490013123,"107":-0.7354894280433655,"108":0.29619619250297546,"109":0.1768953949213028,"110":0.3326548933982849,"111":-0.7646453380584717,"112":1.1244083642959595,"113":-0.6754792928695679,"114":0.14643701910972595,"115":-0.5641201734542847,"116":0.5227108597755432,"117":0.34062352776527405,"118":-0.29993653297424316,"119":-0.908026933670044,"120":1.471187710762024,"121":0.5081632137298584,"122":-0.008291004225611687,"123":0.1402817815542221,"124":0.20976732671260834,"125":-0.14509274065494537,"126":-0.448148250579834,"127":0.7217771410942078,"128":-1.010180950164795,"129":0.6712878942489624,"130":-0.2058592289686203,"131":1.1923801898956299,"132":-0.18521468341350555,"133":-0.7343053817749023,"134":0.24002133309841156,"135":-0.16743764281272888,"136":0.008191079832613468,"137":-0.5659350156784058,"138":0.10764274001121521,"139":-0.18647682666778564,"140":-0.15189288556575775,"141":-0.3775882422924042,"142":0.05956201255321503,"143":0.596233606338501,"144":-0.5980603098869324,"145":-0.34545499086380005,"146":-0.07590935379266739,"147":0.654183566570282,"148":-0.01649334467947483,"149":0.6866455674171448,"150":0.13628490269184113,"151":-0.4046289622783661,"152":-0.5901804566383362,"153":0.076421357691288,"154":-0.09105046093463898,"155":-0.6413716077804565,"156":-0.5057745575904846,"157":0.07882241904735565,"158":-0.27396905422210693,"159":-0.11288401484489441,"160":-0.33464670181274414,"161":0.004267983138561249,"162":0.5497946739196777,"163":-0.4091666638851166,"164":-0.08309374004602432,"165":-0.18912914395332336,"166":-0.7090206146240234,"167":-0.10585825145244598,"168":0.3355826139450073,"169":0.1986474096775055,"170":-0.1470000445842743,"171":0.09081427752971649,"172":0.4727707505226135,"173":-0.6092024445533752,"174":0.29337185621261597,"175":-0.21056261658668518,"176":0.33179277181625366,"177":0.18393097817897797,"178":-0.6559798717498779,"179":0.13217675685882568,"180":-0.29812344908714294,"181":0.012197588570415974,"182":-0.6457077264785767,"183":0.14922083914279938,"184":-0.6015583276748657,"185":-0.27391746640205383,"186":-0.8142163157463074,"187":-0.11346529424190521,"188":0.07163003832101822,"189":-0.04909783974289894,"190":-0.15931303799152374,"191":0.3777865469455719,"192":-0.1697116494178772,"193":-0.3143298923969269,"194":-0.06701269745826721,"195":-0.09239990264177322,"196":-0.1468588262796402,"197":-0.4524008631706238,"198":-0.10971630364656448,"199":-0.5465587377548218,"200":0.23943796753883362,"201":-0.6397098302841187,"202":0.3974562883377075,"203":-0.34977439045906067,"204":0.3079746663570404,"205":-0.18388652801513672,"206":0.2888515293598175,"207":0.0055055515840649605,"208":0.16584748029708862,"209":0.6081030368804932,"210":0.41866326332092285,"211":-0.5092447400093079,"212":-0.7314935326576233,"213":0.21872659027576447,"214":-0.26099297404289246,"215":-0.14655326306819916,"216":-0.9616468548774719,"217":0.6693593263626099,"218":-0.9836811423301697,"219":-0.041695959866046906,"220":-0.6094340682029724,"221":0.9160609841346741,"222":-0.8690662980079651,"223":0.41472968459129333,"224":-0.5432035326957703,"225":-0.5504515767097473,"226":-0.48372572660446167,"227":1.0330647230148315,"228":-0.23594516515731812,"229":0.08106736838817596,"230":-0.20621217787265778,"231":-0.19759541749954224,"232":-0.3364373445510864,"233":-0.17421576380729675,"234":0.14853151142597198,"235":-0.22000259160995483,"236":-0.1488737314939499,"237":-0.6704463958740234,"238":0.37268495559692383,"239":-0.6107693314552307,"240":0.3416600823402405,"241":-0.14181149005889893,"242":0.32986992597579956,"243":-0.12401563674211502,"244":0.28885313868522644,"245":0.3278662860393524,"246":0.11062764376401901,"247":0.33567652106285095,"248":-0.29880809783935547,"249":0.2783941626548767,"250":-0.39557015895843506,"251":-0.6527757048606873,"252":-0.5186638832092285,"253":1.1495167016983032,"254":0.003264491679146886,"255":0.050452593713998795,"256":-1.2390533685684204,"257":0.8083972930908203,"258":-1.9724570512771606,"259":0.7777324318885803,"260":-0.47337526082992554,"261":0.03271063044667244,"262":-0.2810015082359314,"263":0.4670489728450775,"264":0.23043285310268402,"265":0.2169591784477234,"266":-0.7863931655883789,"267":-0.6996777653694153,"268":0.7687016129493713,"269":0.6239497661590576,"270":-0.6192885041236877,"271":-1.0098505020141602,"272":0.934445321559906,"273":0.656625509262085,"274":-0.5444550514221191,"275":0.4843751788139343,"276":0.8103146553039551,"277":-0.7795737981796265,"278":-0.4945197105407715,"279":0.7177181243896484,"280":0.08376596868038177,"281":0.8225843906402588,"282":0.7426018714904785,"283":0.7812031507492065,"284":-0.5195444226264954,"285":0.22760389745235443,"286":0.5025548934936523,"287":-0.46942442655563354,"288":-0.7943289279937744,"289":0.3111584186553955,"290":0.47292935848236084,"291":-0.4339487552642822,"292":-0.44934967160224915,"293":0.3729841113090515,"294":-1.2767716646194458,"295":-0.10662712901830673,"296":-0.3430755138397217,"297":0.9128891229629517,"298":-0.511459231376648,"299":-0.1801534742116928,"300":-0.29873213171958923,"301":-0.3738749325275421,"302":-0.23730984330177307,"303":0.8593553900718689,"304":-0.504814863204956,"305":-0.478792279958725,"306":0.39631980657577515,"307":-0.14594636857509613,"308":0.4425775110721588,"309":-0.7184591889381409,"310":-0.4157891869544983,"311":0.811072826385498,"312":-0.541413426399231,"313":0.9396703243255615,"314":-0.6740660667419434,"315":0.7187281847000122,"316":-0.8437058925628662,"317":0.579592227935791,"318":0.33070826530456543,"319":0.6343255043029785,"320":0.6290881037712097,"321":-0.40934330224990845,"322":-0.8666005730628967,"323":-0.12479576468467712,"324":0.27795618772506714,"325":-0.3076570928096771,"326":-0.6829374432563782,"327":0.11622297763824463,"328":0.5005484223365784,"329":-0.4057160019874573,"330":-0.37958234548568726,"331":-0.04967639967799187,"332":-0.6069499850273132,"333":-0.22764630615711212,"334":-0.41635429859161377,"335":0.6601942777633667,"336":-0.33515918254852295,"337":0.43397215008735657,"338":-0.2958906292915344,"339":0.2711012065410614,"340":-0.11750636249780655,"341":0.2648475468158722,"342":0.041102085262537,"343":-0.759461522102356,"344":1.0113272666931152,"345":-0.28285959362983704,"346":0.7548360228538513,"347":-0.6092734336853027,"348":-0.6448578238487244,"349":0.9639322757720947,"350":-0.4893829822540283,"351":-0.1636780947446823,"352":-0.6538029313087463,"353":0.12773846089839935,"354":0.1253679394721985,"355":0.6552414894104004,"356":0.8623044490814209,"357":0.9388810396194458,"358":0.36449337005615234,"359":-0.5972966551780701,"360":0.1202969178557396,"361":0.5826841592788696,"362":0.4258195459842682,"363":-0.6429176330566406,"364":-0.6964722275733948,"365":0.041085001081228256,"366":-0.12250106036663055,"367":-0.0008359679486602545,"368":-0.9285043478012085,"369":0.6165275573730469,"370":-1.0660532712936401,"371":0.11166372150182724,"372":-0.7923619747161865,"373":0.9794135689735413,"374":-0.8644891977310181,"375":0.27008628845214844,"376":-0.6502150297164917,"377":-0.5538543462753296,"378":-0.23032337427139282,"379":1.0144035816192627}},"inputHidden":{"rows":20,"columns":20,"weights":{"0":-0.29013410210609436,"1":-0.4111720621585846,"2":0.22615553438663483,"3":0.43117856979370117,"4":-0.7169414162635803,"5":-0.9955824613571167,"6":0.019873054698109627,"7":-0.7455481290817261,"8":0.77177894115448,"9":-0.30183833837509155,"10":-0.7526718974113464,"11":0.16599446535110474,"12":0.9348177909851074,"13":-0.5911426544189453,"14":0.6913192868232727,"15":-0.6429809331893921,"16":0.0008545186719857156,"17":-0.8338072896003723,"18":0.2365611344575882,"19":0.1204412505030632,"20":-1.378930926322937,"21":-1.001528024673462,"22":1.3496073484420776,"23":1.4879064559936523,"24":-1.114579677581787,"25":-0.45188280940055847,"26":1.2143887281417847,"27":-1.0834319591522217,"28":0.7717694044113159,"29":-0.8919110894203186,"30":-0.9877915382385254,"31":0.7476544380187988,"32":0.856893002986908,"33":-1.209637999534607,"34":1.0028393268585205,"35":-1.1188039779663086,"36":-0.5853087902069092,"37":-1.2702208757400513,"38":1.1640962362289429,"39":0.7733989357948303,"40":-0.023013923317193985,"41":0.13804051280021667,"42":-0.7763826251029968,"43":-0.6240338683128357,"44":-0.17558389902114868,"45":-1.5820856094360352,"46":0.8148224949836731,"47":-0.15670859813690186,"48":-0.042522087693214417,"49":0.07661715149879456,"50":-0.32577836513519287,"51":0.357037216424942,"52":0.4157745838165283,"53":-0.07935603708028793,"54":0.6445227265357971,"55":-0.15201544761657715,"56":-0.8262471556663513,"57":-0.5675621628761292,"58":1.7842034101486206,"59":0.3009272515773773,"60":-0.5312206745147705,"61":-0.5456812381744385,"62":-0.8946516513824463,"63":-0.37041130661964417,"64":-0.6546190977096558,"65":-0.3041022717952728,"66":0.5028404593467712,"67":-0.10221094638109207,"68":0.05559222027659416,"69":-0.5162060856819153,"70":-0.7029497623443604,"71":-0.03378457576036453,"72":0.08401662856340408,"73":0.21490824222564697,"74":0.10856946557760239,"75":-0.42409396171569824,"76":-0.19370725750923157,"77":-0.27751675248146057,"78":0.5769273638725281,"79":-0.08901143074035645,"80":-0.8079984188079834,"81":-0.7340754866600037,"82":0.2630396783351898,"83":0.47075778245925903,"84":-1.1650182008743286,"85":-0.5753821134567261,"86":0.22211071848869324,"87":-1.0044864416122437,"88":1.1691672801971436,"89":-0.615301251411438,"90":-1.1488709449768066,"91":0.3603982627391815,"92":1.1836999654769897,"93":-0.8646852374076843,"94":0.9864060282707214,"95":-0.8782413601875305,"96":0.0033522171434015036,"97":-0.8647636771202087,"98":0.3427562117576599,"99":0.2550313472747803,"100":0.361396849155426,"101":0.03874744847416878,"102":0.9628046154975891,"103":0.873389720916748,"104":0.05461399257183075,"105":0.3445356786251068,"106":0.6460282206535339,"107":-0.0010463112266734242,"108":-0.4570232927799225,"109":0.2285347878932953,"110":-0.0815725326538086,"111":0.6247687935829163,"112":0.04868420585989952,"113":-0.09287559241056442,"114":0.12836289405822754,"115":0.008276363834738731,"116":-1.4386950731277466,"117":-0.04469935595989227,"118":0.9287288188934326,"119":0.5465830564498901,"120":0.04774342477321625,"121":-0.04046532139182091,"122":-1.663437008857727,"123":-1.248525857925415,"124":0.015359267592430115,"125":0.2015562206506729,"126":-0.5082268714904785,"127":-0.38564634323120117,"128":0.41017526388168335,"129":-0.8919056057929993,"130":0.041607897728681564,"131":-0.5643849968910217,"132":0.45483046770095825,"133":-0.19740985333919525,"134":-0.3162524700164795,"135":0.13314737379550934,"136":-0.11277029663324356,"137":-0.09115932881832123,"138":0.006815674249082804,"139":-0.5564032196998596,"140":-0.6051421165466309,"141":-0.6820139288902283,"142":1.1277750730514526,"143":1.660104751586914,"144":-0.6659324765205383,"145":-0.06718622893095016,"146":0.9643705487251282,"147":-0.8265735507011414,"148":0.8681663274765015,"149":-0.44986045360565186,"150":-0.7127513289451599,"151":0.7529149055480957,"152":0.8189085125923157,"153":-0.9132944941520691,"154":1.0507607460021973,"155":-0.704067051410675,"156":-0.0018711877055466175,"157":-0.7204593420028687,"158":0.10205903649330139,"159":0.7506454586982727,"160":-0.9476120471954346,"161":-0.6704584956169128,"162":0.22581900656223297,"163":0.5033277869224548,"164":-1.093059778213501,"165":-0.32644253969192505,"166":1.0787980556488037,"167":-0.6336625814437866,"168":0.7565629482269287,"169":-0.4088130593299866,"170":-1.0693556070327759,"171":0.20889201760292053,"172":1.0094941854476929,"173":-0.9566605091094971,"174":1.3110159635543823,"175":-1.0465422868728638,"176":-0.4947070777416229,"177":-0.7593958377838135,"178":0.7810106873512268,"179":0.14462938904762268,"180":-1.1487996578216553,"181":-0.7202034592628479,"182":1.1943775415420532,"183":0.5444190502166748,"184":-1.1660432815551758,"185":0.28942182660102844,"186":0.930133581161499,"187":-0.8246150016784668,"188":0.6947959065437317,"189":-0.6034139394760132,"190":-0.9582923650741577,"191":0.25925010442733765,"192":0.4166901111602783,"193":-0.973031222820282,"194":1.0343080759048462,"195":-1.0981563329696655,"196":-1.0439248085021973,"197":-0.5855979323387146,"198":1.4556537866592407,"199":0.1692570298910141,"200":-1.2822147607803345,"201":-1.149535894393921,"202":0.6310842633247375,"203":0.7173951864242554,"204":-1.486005425453186,"205":-0.0014336410677060485,"206":0.6004616618156433,"207":-1.27547025680542,"208":1.2744237184524536,"209":-0.901730477809906,"210":-1.39859938621521,"211":0.6386994123458862,"212":1.1584924459457397,"213":-1.0227731466293335,"214":1.2606778144836426,"215":-1.270588994026184,"216":-0.34748613834381104,"217":-0.8677411079406738,"218":0.3782874047756195,"219":0.5925568342208862,"220":-0.8169333338737488,"221":-0.5367265343666077,"222":0.28987541794776917,"223":-0.16369445621967316,"224":-1.091504454612732,"225":-0.3986601233482361,"226":-0.5297362804412842,"227":-1.0787036418914795,"228":0.881389856338501,"229":-1.0351459980010986,"230":-1.038421869277954,"231":-0.8424950242042542,"232":0.9264127016067505,"233":-0.7978036403656006,"234":-0.2800807058811188,"235":-0.9525651931762695,"236":-0.8253865242004395,"237":-0.8829455971717834,"238":0.2571928799152374,"239":-0.722009003162384,"240":-1.072096824645996,"241":-1.081916093826294,"242":1.024125337600708,"243":0.7175019979476929,"244":-1.306602120399475,"245":-0.19442220032215118,"246":0.5148371458053589,"247":-1.3362795114517212,"248":1.4692254066467285,"249":-0.9722154140472412,"250":-1.3953794240951538,"251":1.000584602355957,"252":0.7334436774253845,"253":-1.0419124364852905,"254":1.1718765497207642,"255":-1.117491602897644,"256":-0.8407346606254578,"257":-0.7739306688308716,"258":1.2245572805404663,"259":1.0388768911361694,"260":-0.4437482953071594,"261":-0.2633892297744751,"262":-0.6111621856689453,"263":0.42407357692718506,"264":-0.6605852842330933,"265":-0.28044289350509644,"266":-0.44613346457481384,"267":-0.4668450355529785,"268":0.9403537511825562,"269":-0.06397989392280579,"270":-0.8610394597053528,"271":-0.44067153334617615,"272":0.6055338978767395,"273":-0.9989070892333984,"274":0.6321525573730469,"275":-0.9543827176094055,"276":0.3816985487937927,"277":-0.4912659525871277,"278":-0.47063612937927246,"279":-0.37912750244140625,"280":-0.2881092429161072,"281":-0.6786993145942688,"282":0.06639810651540756,"283":-0.20239712297916412,"284":-0.2610194981098175,"285":-0.42348670959472656,"286":0.1849098801612854,"287":-0.773457407951355,"288":0.6778532862663269,"289":-1.189068078994751,"290":-0.6256242990493774,"291":-0.1453082412481308,"292":0.6170312166213989,"293":-0.3181512951850891,"294":0.27001622319221497,"295":-0.09288261830806732,"296":0.010971390642225742,"297":-0.5885399580001831,"298":-0.61747145652771,"299":0.1474202275276184,"300":-0.47231632471084595,"301":-0.7869898080825806,"302":0.35427001118659973,"303":0.07807192206382751,"304":-0.8930369019508362,"305":-0.22153398394584656,"306":-0.1605275571346283,"307":-1.038695216178894,"308":1.1391583681106567,"309":-0.47464579343795776,"310":-0.970824658870697,"311":0.23242834210395813,"312":1.3260043859481812,"313":-0.7520580887794495,"314":0.8169628381729126,"315":-0.6096369624137878,"316":0.015396486967802048,"317":-0.7566439509391785,"318":0.19402235746383667,"319":0.3864351809024811,"320":-0.4597756564617157,"321":-0.4263846278190613,"322":0.20600245893001556,"323":0.47285327315330505,"324":-0.7476598024368286,"325":-0.9753725528717041,"326":0.6246313452720642,"327":-0.37286511063575745,"328":0.7372266054153442,"329":-0.6092053651809692,"330":-0.696485698223114,"331":0.1842823177576065,"332":0.6996496319770813,"333":0.36622074246406555,"334":0.740358293056488,"335":-0.5793572664260864,"336":0.3277447819709778,"337":-0.7644723653793335,"338":0.7346898317337036,"339":0.0622033067047596,"340":-1.6677910089492798,"341":-1.2943150997161865,"342":0.9379656910896301,"343":0.7449826598167419,"344":-1.6140038967132568,"345":-0.6540767550468445,"346":0.7259377241134644,"347":-1.2177106142044067,"348":1.1588157415390015,"349":-1.1154147386550903,"350":-1.5445326566696167,"351":0.4263111650943756,"352":1.302114486694336,"353":-0.888012707233429,"354":1.2028394937515259,"355":-1.6998265981674194,"356":-0.9695290327072144,"357":-0.9041106104850769,"358":0.7797049880027771,"359":0.5523773431777954,"360":-0.002004068810492754,"361":-0.10079430043697357,"362":-0.34859755635261536,"363":-0.34850776195526123,"364":0.12220508605241776,"365":-0.29134994745254517,"366":-0.5556443333625793,"367":-0.16872763633728027,"368":0.0011407955316826701,"369":-0.6059716939926147,"370":0.12775854766368866,"371":-0.9200126528739929,"372":0.22548165917396545,"373":0.10449355840682983,"374":-0.7991592288017273,"375":0.19233722984790802,"376":-0.6105745434761047,"377":0.1541222631931305,"378":-0.3113827705383301,"379":-0.8971037864685059,"380":-0.9823204278945923,"381":-0.5902186632156372,"382":0.2263205349445343,"383":-0.11805471032857895,"384":-1.2275865077972412,"385":-0.4174574017524719,"386":-0.44800254702568054,"387":-0.9160566329956055,"388":0.7954680323600769,"389":-0.7688294649124146,"390":-1.16526460647583,"391":-0.7654172778129578,"392":0.9113438725471497,"393":-0.7352630496025085,"394":-0.3451135754585266,"395":-0.8864746689796448,"396":-1.0156360864639282,"397":-0.7330283522605896,"398":0.20089668035507202,"399":-0.7738438248634338}},"inputBias":{"rows":20,"columns":1,"weights":{"0":0.7938567399978638,"1":-0.6672383546829224,"2":-0.47945526242256165,"3":-1.1254160404205322,"4":0.5094268918037415,"5":0.9808952808380127,"6":0.2576337158679962,"7":-0.21593323349952698,"8":-0.09419919550418854,"9":-0.4855150282382965,"10":-0.1880655437707901,"11":-0.3873235583305359,"12":-0.234864741563797,"13":-0.44799840450286865,"14":0.16019384562969208,"15":0.580030620098114,"16":-1.0235927104949951,"17":-0.9929095506668091,"18":-0.769628643989563,"19":-0.5640850067138672}},"forgetMatrix":{"rows":20,"columns":19,"weights":{"0":-0.1997382938861847,"1":-0.1559412181377411,"2":0.07119938731193542,"3":0.4187917411327362,"4":-0.688376784324646,"5":0.1876528412103653,"6":0.01667710766196251,"7":0.5654101371765137,"8":-0.29267221689224243,"9":0.4706554710865021,"10":0.7047365307807922,"11":-0.534252405166626,"12":-0.6108867526054382,"13":0.33497354388237,"14":0.36445218324661255,"15":0.17362312972545624,"16":0.7156226634979248,"17":0.3624177575111389,"18":-0.6382588744163513,"19":-0.400015652179718,"20":0.1022445484995842,"21":-0.184812992811203,"22":0.17471374571323395,"23":-0.4458395838737488,"24":0.07877585291862488,"25":-0.052559833973646164,"26":0.07107748836278915,"27":-0.32827335596084595,"28":0.37955448031425476,"29":0.5203925967216492,"30":-0.5529546141624451,"31":-0.39031171798706055,"32":0.03765156865119934,"33":0.5986173748970032,"34":-0.022328509017825127,"35":0.5242580771446228,"36":0.4740540087223053,"37":-0.46396926045417786,"38":1.026668906211853,"39":1.0141979455947876,"40":-0.8794110417366028,"41":-1.2915326356887817,"42":-0.2371668666601181,"43":0.8300066590309143,"44":-0.328815221786499,"45":-1.0540775060653687,"46":0.7089056968688965,"47":-0.9376600980758667,"48":0.41816574335098267,"49":-0.3396519422531128,"50":1.0468451976776123,"51":-1.2086454629898071,"52":0.36472439765930176,"53":-0.6570883393287659,"54":-0.7642589211463928,"55":-0.1548997461795807,"56":1.157990574836731,"57":0.5291462540626526,"58":0.6030524969100952,"59":-0.20135673880577087,"60":-1.366312026977539,"61":-0.8509172201156616,"62":-0.14845909178256989,"63":-0.34946221113204956,"64":-0.490478515625,"65":0.5737955570220947,"66":-0.4460228681564331,"67":0.626547634601593,"68":0.8222342133522034,"69":0.6718669533729553,"70":-0.35726112127304077,"71":-0.460911363363266,"72":-0.04003142938017845,"73":-0.5235234498977661,"74":0.8276711106300354,"75":0.6496140360832214,"76":-0.005605793092399836,"77":0.5217118859291077,"78":-0.3423278033733368,"79":-0.23811012506484985,"80":-0.040754277259111404,"81":0.11764214187860489,"82":-1.0774842500686646,"83":0.4082315266132355,"84":-0.10373351722955704,"85":0.6073285341262817,"86":-0.22107252478599548,"87":0.12216556072235107,"88":-0.5366533398628235,"89":-0.018543757498264313,"90":1.3436384201049805,"91":-0.018148688599467278,"92":0.4565051198005676,"93":-0.568750262260437,"94":-0.5238803625106812,"95":0.726202666759491,"96":0.872950553894043,"97":-1.1450639963150024,"98":-0.2229374349117279,"99":-0.5041617751121521,"100":0.9645270705223083,"101":0.17163950204849243,"102":-0.9261294603347778,"103":0.5663066506385803,"104":-0.05968062952160835,"105":0.44284120202064514,"106":-0.35711222887039185,"107":0.1708536595106125,"108":-0.9821247458457947,"109":-0.19370369613170624,"110":-1.3752124309539795,"111":-0.675453782081604,"112":0.3213197886943817,"113":0.32452133297920227,"114":0.35549241304397583,"115":0.6166621446609497,"116":-0.7212744951248169,"117":-0.3132503628730774,"118":-0.4929659068584442,"119":0.5019247531890869,"120":0.1137174591422081,"121":-0.5247682929039001,"122":0.08172468096017838,"123":-0.3183372914791107,"124":0.03632783889770508,"125":-0.2954918444156647,"126":0.42690205574035645,"127":-0.7491762042045593,"128":0.366600900888443,"129":-0.8763689994812012,"130":-0.18745556473731995,"131":0.1329665184020996,"132":0.20965509116649628,"133":-0.3957369029521942,"134":-0.25522536039352417,"135":0.5596586465835571,"136":-0.20607294142246246,"137":0.0718621015548706,"138":-0.009109443053603172,"139":-0.9924401640892029,"140":0.5152947902679443,"141":-0.3038659989833832,"142":0.15502426028251648,"143":0.03965771198272705,"144":-0.027091216295957565,"145":-0.1898372918367386,"146":0.4820517301559448,"147":1.0321284532546997,"148":0.7386660575866699,"149":0.5576521754264832,"150":-0.5569134950637817,"151":-0.12745718657970428,"152":-0.24113325774669647,"153":0.3272974491119385,"154":0.0950416624546051,"155":-0.0017714551649987698,"156":0.012169371359050274,"157":0.05557782202959061,"158":-0.8370802402496338,"159":0.3406473696231842,"160":-0.29250726103782654,"161":0.3803447484970093,"162":-0.07660568505525589,"163":0.10937115550041199,"164":-0.4002174139022827,"165":0.3367513120174408,"166":0.9268268346786499,"167":0.3173837661743164,"168":0.322755366563797,"169":-0.37898313999176025,"170":-0.39469748735427856,"171":0.35998326539993286,"172":-0.5901333093643188,"173":1.1866673231124878,"174":-0.5635133385658264,"175":0.03107711672782898,"176":-1.104600429534912,"177":-0.389789879322052,"178":0.965933084487915,"179":0.17757491767406464,"180":0.19184555113315582,"181":-0.4433731138706207,"182":-0.2528981566429138,"183":-0.18733450770378113,"184":0.648260235786438,"185":0.6631670594215393,"186":1.1155380010604858,"187":-0.2121734321117401,"188":0.13227760791778564,"189":-0.19180446863174438,"190":0.18264012038707733,"191":0.49115419387817383,"192":-0.5115958452224731,"193":-0.10271861404180527,"194":-0.07903999835252762,"195":0.21710747480392456,"196":-0.8770099878311157,"197":0.38654428720474243,"198":0.05700759217143059,"199":0.42578306794166565,"200":-0.19037547707557678,"201":-0.18965765833854675,"202":-0.39751577377319336,"203":-0.06075945869088173,"204":1.1176053285598755,"205":-0.12819306552410126,"206":0.28531885147094727,"207":-0.4451427757740021,"208":-0.4274286925792694,"209":0.04202776029706001,"210":0.8316498398780823,"211":-0.8361546397209167,"212":-0.05578794702887535,"213":-0.7726748585700989,"214":0.5356004238128662,"215":0.6195694208145142,"216":-0.2447354942560196,"217":0.02248539961874485,"218":0.2159808725118637,"219":0.8392530679702759,"220":-0.9691305756568909,"221":-0.0892912894487381,"222":-0.43999144434928894,"223":0.03142784163355827,"224":-0.6948488354682922,"225":0.12147212773561478,"226":0.7308477759361267,"227":-0.11465481668710709,"228":-0.10816638171672821,"229":0.3446630537509918,"230":0.010127591900527477,"231":-0.08497606217861176,"232":0.142959862947464,"233":0.06229381635785103,"234":-1.424757719039917,"235":0.5688071846961975,"236":-0.1954943686723709,"237":0.48250600695610046,"238":-0.32738131284713745,"239":0.6017935276031494,"240":-0.49396514892578125,"241":0.13148874044418335,"242":1.2444512844085693,"243":0.28428560495376587,"244":0.39889800548553467,"245":-0.7412410378456116,"246":-0.5683199167251587,"247":-0.4010716378688812,"248":-1.1454031467437744,"249":1.2044035196304321,"250":0.8957227468490601,"251":-0.6868516802787781,"252":-0.36188092827796936,"253":0.1730814278125763,"254":1.2950057983398438,"255":-0.4199443459510803,"256":0.12922632694244385,"257":0.6610110998153687,"258":0.4218814969062805,"259":-0.4648491144180298,"260":1.2224175930023193,"261":0.12250198423862457,"262":0.5435733795166016,"263":0.4954506754875183,"264":0.6358477473258972,"265":-0.32738322019577026,"266":-0.1884790062904358,"267":-0.0368712842464447,"268":-0.15497182309627533,"269":0.07834362238645554,"270":-0.7412252426147461,"271":0.26495838165283203,"272":-0.1253318041563034,"273":0.21548758447170258,"274":-0.12440740317106247,"275":0.3938567638397217,"276":0.8465105891227722,"277":0.22912201285362244,"278":-0.25362592935562134,"279":0.11078685522079468,"280":-0.41888532042503357,"281":-0.15819671750068665,"282":0.008098175749182701,"283":0.555794894695282,"284":-0.3386152386665344,"285":-0.7546862959861755,"286":0.18241073191165924,"287":-0.13520820438861847,"288":-0.02338433265686035,"289":-0.39793819189071655,"290":-0.05243014544248581,"291":-0.9534236788749695,"292":0.5719259977340698,"293":-0.9168011546134949,"294":0.7563765645027161,"295":0.2896939218044281,"296":0.07281891256570816,"297":-0.7483586668968201,"298":0.18575608730316162,"299":1.1080011129379272,"300":0.1304980218410492,"301":0.9317998290061951,"302":-0.22280074656009674,"303":-0.9066306948661804,"304":-0.047361429780721664,"305":-0.39955025911331177,"306":0.3404378294944763,"307":-0.3362029492855072,"308":-0.008616629987955093,"309":0.3843132257461548,"310":0.06898903846740723,"311":0.4376659095287323,"312":0.005750076845288277,"313":0.342967689037323,"314":0.3494293987751007,"315":-0.34360846877098083,"316":-0.636135995388031,"317":0.4945850074291229,"318":-0.3743385076522827,"319":0.46560558676719666,"320":0.11539708077907562,"321":-0.10758097469806671,"322":-0.5086628198623657,"323":-0.44501110911369324,"324":-0.25063344836235046,"325":0.3522712290287018,"326":-0.002242044545710087,"327":-0.1397404968738556,"328":-0.2609148919582367,"329":-0.6678736805915833,"330":0.797281801700592,"331":-0.4241849482059479,"332":0.6075764298439026,"333":0.16693614423274994,"334":-0.049488365650177,"335":-0.6292294263839722,"336":0.6115869283676147,"337":0.8480497598648071,"338":0.6027939915657043,"339":0.4905194342136383,"340":0.11428111791610718,"341":-0.6079038381576538,"342":-0.557215690612793,"343":-0.29967862367630005,"344":0.3856194019317627,"345":-0.44814297556877136,"346":-0.14358985424041748,"347":0.23792310059070587,"348":-0.6604282259941101,"349":0.5940168499946594,"350":-0.40678760409355164,"351":0.6154775619506836,"352":0.15271809697151184,"353":-0.2920645475387573,"354":-0.45375993847846985,"355":0.4224248230457306,"356":0.7825003862380981,"357":0.44573307037353516,"358":0.5147802233695984,"359":-0.8469099402427673,"360":-0.48704084753990173,"361":-0.050168782472610474,"362":0.8935831189155579,"363":-0.7832772135734558,"364":0.0508841909468174,"365":-0.7331711649894714,"366":0.38267746567726135,"367":0.7486312985420227,"368":-0.11681303381919861,"369":0.023575138300657272,"370":0.20206868648529053,"371":0.8592454195022583,"372":-1.0333678722381592,"373":-0.15995784103870392,"374":-0.45900964736938477,"375":0.1618126928806305,"376":-0.6248522400856018,"377":0.16045479476451874,"378":0.7696908712387085,"379":-0.1292044073343277}},"forgetHidden":{"rows":20,"columns":20,"weights":{"0":-0.16786609590053558,"1":-0.10386495292186737,"2":0.6681219935417175,"3":0.09983347356319427,"4":-0.25370651483535767,"5":0.002709698397666216,"6":1.0016335248947144,"7":0.03305584192276001,"8":0.28852084279060364,"9":-0.18726226687431335,"10":-0.09373641014099121,"11":0.8847768902778625,"12":-0.0776563510298729,"13":-0.39609718322753906,"14":0.8052191138267517,"15":-0.16943401098251343,"16":0.36159548163414,"17":-0.14584949612617493,"18":0.39266741275787354,"19":0.965296745300293,"20":-0.03169594332575798,"21":-0.2209291309118271,"22":0.9646031856536865,"23":-0.011384841054677963,"24":-0.1252817064523697,"25":-0.011207506991922855,"26":0.356238454580307,"27":-0.09123731404542923,"28":0.19893139600753784,"29":-0.1929907500743866,"30":-0.03523922339081764,"31":0.7824577689170837,"32":0.06081679090857506,"33":-0.7586623430252075,"34":0.12821996212005615,"35":-0.027578311040997505,"36":-0.25310781598091125,"37":-0.09805703163146973,"38":0.6742756962776184,"39":0.7596744298934937,"40":0.38725176453590393,"41":0.6417431831359863,"42":0.68235844373703,"43":0.49957582354545593,"44":0.15618009865283966,"45":0.43787893652915955,"46":-0.38186192512512207,"47":0.2596765160560608,"48":-0.5964367985725403,"49":0.3909842371940613,"50":0.49323511123657227,"51":-0.36227619647979736,"52":-0.25539112091064453,"53":0.2810107171535492,"54":-0.8885867595672607,"55":0.5584142804145813,"56":0.290336012840271,"57":0.2422555387020111,"58":-0.29279303550720215,"59":-0.31510281562805176,"60":0.26109835505485535,"61":0.12082415074110031,"62":0.27297958731651306,"63":0.8377007246017456,"64":0.4046649932861328,"65":-0.033729854971170425,"66":0.17534345388412476,"67":-0.1631992608308792,"68":0.2305249273777008,"69":0.4646221101284027,"70":0.37591904401779175,"71":-0.20006811618804932,"72":-0.1444178968667984,"73":0.10434164106845856,"74":-0.04207262396812439,"75":0.00507064675912261,"76":0.7441941499710083,"77":-0.3295525908470154,"78":-0.7848575711250305,"79":-0.17648407816886902,"80":0.048002030700445175,"81":-0.010595918633043766,"82":1.1644173860549927,"83":0.4743954539299011,"84":0.1685670018196106,"85":0.6672871112823486,"86":0.6740636825561523,"87":-0.10492445528507233,"88":0.06762095540761948,"89":-0.19014401733875275,"90":0.09775371104478836,"91":1.067461371421814,"92":-0.12667416036128998,"93":0.027533795684576035,"94":0.4564909040927887,"95":0.18939024209976196,"96":0.20442409813404083,"97":0.05053965747356415,"98":0.3988267183303833,"99":0.9639091491699219,"100":0.7919220924377441,"101":0.6520496010780334,"102":-0.24388065934181213,"103":0.14449217915534973,"104":0.7744027376174927,"105":0.053955111652612686,"106":0.19149275124073029,"107":0.7397829294204712,"108":-0.7640460729598999,"109":0.7207669615745544,"110":0.7701815962791443,"111":-0.13986919820308685,"112":-1.016931176185608,"113":0.826008141040802,"114":-0.14819559454917908,"115":0.8746658563613892,"116":0.2261992245912552,"117":0.8483841419219971,"118":-0.8327673077583313,"119":-0.24760539829730988,"120":-0.20651459693908691,"121":-0.5449361801147461,"122":0.46365785598754883,"123":0.09957718104124069,"124":-0.19866658747196198,"125":-0.2701520025730133,"126":0.7106752395629883,"127":-0.4992602467536926,"128":0.37205785512924194,"129":-0.15135900676250458,"130":-0.43669337034225464,"131":0.7022754549980164,"132":0.1601039469242096,"133":0.11642247438430786,"134":0.8536097407341003,"135":-0.10647698491811752,"136":-0.6329912543296814,"137":-0.3399777412414551,"138":0.46152400970458984,"139":0.688315212726593,"140":-0.05358995497226715,"141":-0.23838940262794495,"142":0.18991215527057648,"143":0.091300830245018,"144":-0.20904113352298737,"145":0.08840560168027878,"146":0.5252631902694702,"147":-0.2547549903392792,"148":0.19024595618247986,"149":-0.30882057547569275,"150":-0.30648767948150635,"151":0.6456524729728699,"152":0.18816135823726654,"153":-0.002901641186326742,"154":0.49050450325012207,"155":-0.2339777797460556,"156":-0.016801932826638222,"157":-0.1291528195142746,"158":0.33354896306991577,"159":0.7035620808601379,"160":-0.22086216509342194,"161":-0.3160756528377533,"162":-0.19537873566150665,"163":0.14768950641155243,"164":-0.334255188703537,"165":0.17109785974025726,"166":0.3477327823638916,"167":-0.3262459635734558,"168":0.5530673265457153,"169":-0.4436512887477875,"170":-0.29263749718666077,"171":0.6101256608963013,"172":0.15285331010818481,"173":-0.3166191279888153,"174":0.3711273670196533,"175":-0.40858256816864014,"176":1.0329757928848267,"177":-0.21188046038150787,"178":0.04693762585520744,"179":0.6444411873817444,"180":-0.5794920921325684,"181":-0.2883877754211426,"182":0.0713718980550766,"183":-0.22326964139938354,"184":-0.5150377154350281,"185":0.8155314326286316,"186":0.4307401776313782,"187":-0.46702608466148376,"188":0.3504008948802948,"189":-0.30891573429107666,"190":-0.39274221658706665,"191":0.3566296696662903,"192":0.23164689540863037,"193":-0.2750645875930786,"194":0.17667058110237122,"195":-0.5592831969261169,"196":0.2155129611492157,"197":-0.39179256558418274,"198":0.31419017910957336,"199":0.4724660813808441,"200":0.08033321052789688,"201":-0.10014806687831879,"202":1.110059142112732,"203":0.4505094289779663,"204":0.12370149791240692,"205":0.03241431340575218,"206":0.5877397656440735,"207":-0.01434820145368576,"208":0.11503259092569351,"209":-0.057040683925151825,"210":0.06371470540761948,"211":0.9186962246894836,"212":-0.11205830425024033,"213":-0.3224969506263733,"214":0.2555665671825409,"215":0.0979614108800888,"216":0.040924690663814545,"217":-0.002472158055752516,"218":0.40354132652282715,"219":0.9726057052612305,"220":0.07228194177150726,"221":-0.3555383086204529,"222":-0.3382967710494995,"223":0.13026177883148193,"224":0.04685463756322861,"225":-1.2451742887496948,"226":0.3149580657482147,"227":-0.06460120528936386,"228":-0.00039774554898031056,"229":0.016722552478313446,"230":-0.012027625925838947,"231":0.36377015709877014,"232":-0.23771879076957703,"233":0.30396005511283875,"234":0.15539047122001648,"235":0.04815514385700226,"236":-0.014612073078751564,"237":0.16293255984783173,"238":0.5653379559516907,"239":0.3959946930408478,"240":0.0017713429406285286,"241":-0.10150282829999924,"242":0.3833497166633606,"243":0.7354437708854675,"244":0.09624825417995453,"245":0.9875606298446655,"246":0.6135106086730957,"247":-0.04999812692403793,"248":0.05771452933549881,"249":-0.022870805114507675,"250":0.12491718679666519,"251":0.9756355881690979,"252":-0.1758624017238617,"253":0.24256832897663116,"254":0.5609900951385498,"255":0.04778968170285225,"256":-0.1436297744512558,"257":0.16574515402317047,"258":0.4526126980781555,"259":0.8653832077980042,"260":0.19168904423713684,"261":0.2606777846813202,"262":-0.09755972772836685,"263":1.059920310974121,"264":0.21003900468349457,"265":0.819669783115387,"266":0.1107383444905281,"267":0.11760855466127396,"268":-0.005202350206673145,"269":-0.7136512994766235,"270":0.2711077928543091,"271":-0.3979284465312958,"272":-0.046319860965013504,"273":0.5302563905715942,"274":-0.22665347158908844,"275":0.26826465129852295,"276":0.038445986807346344,"277":-0.9744370579719543,"278":0.2118878960609436,"279":-0.4431608021259308,"280":-0.6389731168746948,"281":-0.07761666178703308,"282":0.22759176790714264,"283":0.5245593786239624,"284":-0.7709217667579651,"285":-0.2892950177192688,"286":0.9262653589248657,"287":-0.44681811332702637,"288":0.004610897973179817,"289":-0.3757188320159912,"290":-0.5329440832138062,"291":0.7122629880905151,"292":0.7419782876968384,"293":0.4827300012111664,"294":0.6027929186820984,"295":-0.46266940236091614,"296":-0.6212239265441895,"297":-0.7320929765701294,"298":0.9569169878959656,"299":0.8044818639755249,"300":0.15131299197673798,"301":-0.01820712350308895,"302":0.4686056971549988,"303":0.37315529584884644,"304":0.30605632066726685,"305":0.0981958732008934,"306":1.0232949256896973,"307":-0.03637450560927391,"308":0.13789431750774384,"309":-0.015877366065979004,"310":0.3614823520183563,"311":1.0595886707305908,"312":-0.27208107709884644,"313":-0.09087792038917542,"314":0.9779607653617859,"315":0.11204688251018524,"316":0.5099648833274841,"317":0.23269478976726532,"318":0.33122918009757996,"319":1.1011019945144653,"320":-0.36118820309638977,"321":0.3419906795024872,"322":0.0818345844745636,"323":0.6411910653114319,"324":0.3279356062412262,"325":-0.12413179129362106,"326":0.7264642715454102,"327":0.11360442638397217,"328":-0.08763951808214188,"329":-0.1264999657869339,"330":0.2784477174282074,"331":0.5962927341461182,"332":-0.24825029075145721,"333":-0.26144975423812866,"334":0.921226978302002,"335":-0.5040947794914246,"336":0.3997346758842468,"337":0.05606086179614067,"338":-0.23641517758369446,"339":0.7547486424446106,"340":-0.15430019795894623,"341":-0.20064234733581543,"342":1.8585439920425415,"343":0.3851223886013031,"344":-0.13775525987148285,"345":1.8625333309173584,"346":0.7895911335945129,"347":-0.2514861822128296,"348":0.1536276936531067,"349":-0.008761130273342133,"350":-0.12556669116020203,"351":0.8360721468925476,"352":0.15326914191246033,"353":-0.18151862919330597,"354":0.2243632674217224,"355":-0.18121717870235443,"356":0.24162225425243378,"357":-0.02373192459344864,"358":0.24362467229366302,"359":0.8399702310562134,"360":-0.13378965854644775,"361":-0.03671400249004364,"362":0.23290833830833435,"363":0.9783074855804443,"364":-0.1700132042169571,"365":0.24919569492340088,"366":0.2743751108646393,"367":-0.5750176906585693,"368":0.5630518794059753,"369":-0.5384477972984314,"370":-0.38404712080955505,"371":0.3890431821346283,"372":0.4703757166862488,"373":-0.37721240520477295,"374":0.2633087933063507,"375":-0.07443607598543167,"376":0.677859902381897,"377":-0.4586157500743866,"378":-0.30326947569847107,"379":0.32799816131591797,"380":0.09953320026397705,"381":-0.2991727590560913,"382":-0.44875529408454895,"383":0.16156348586082458,"384":-0.02504667080938816,"385":-1.4720584154129028,"386":0.37455683946609497,"387":0.09809792786836624,"388":-0.0028891272377222776,"389":-0.032542336732149124,"390":-0.021746156737208366,"391":0.35058605670928955,"392":-0.22358961403369904,"393":0.3653983473777771,"394":0.21434979140758514,"395":0.03317682817578316,"396":-0.05556640401482582,"397":0.13777777552604675,"398":0.49959972500801086,"399":0.37442493438720703}},"forgetBias":{"rows":20,"columns":1,"weights":{"0":0,"1":0,"2":0,"3":0,"4":0,"5":0,"6":0,"7":0,"8":0,"9":0,"10":0,"11":0,"12":0,"13":0,"14":0,"15":0,"16":0,"17":0,"18":0,"19":0}},"outputMatrix":{"rows":20,"columns":19,"weights":{"0":0.6796442270278931,"1":0.5345245599746704,"2":-0.5955883860588074,"3":-0.822806715965271,"4":-0.17104019224643707,"5":0.478890985250473,"6":0.02466394565999508,"7":-0.45791947841644287,"8":0.903868556022644,"9":-0.9817732572555542,"10":0.12655217945575714,"11":-0.650489091873169,"12":0.7085423469543457,"13":-0.4819641411304474,"14":-0.3932863771915436,"15":-0.3421357572078705,"16":-0.8929727077484131,"17":-0.028187034651637077,"18":0.970927894115448,"19":-0.14880605041980743,"20":0.2894466817378998,"21":-0.22312752902507782,"22":0.09190288931131363,"23":-0.36218708753585815,"24":0.4747737646102905,"25":0.07616876065731049,"26":-0.4859709143638611,"27":-0.019088532775640488,"28":-0.3367651402950287,"29":0.24306301772594452,"30":-0.5888389348983765,"31":0.034053146839141846,"32":-0.48389381170272827,"33":0.39391204714775085,"34":-0.4986490309238434,"35":0.19972293078899384,"36":0.016281435266137123,"37":0.0038292512763291597,"38":1.0059590339660645,"39":1.0389503240585327,"40":-0.8651096820831299,"41":-0.3087031841278076,"42":-0.5780326724052429,"43":0.23911018669605255,"44":0.8029594421386719,"45":-1.2086408138275146,"46":1.06619131565094,"47":0.6363481879234314,"48":-0.31138208508491516,"49":0.11340965330600739,"50":-0.3594186007976532,"51":-1.1687347888946533,"52":-0.8068702220916748,"53":-1.2884074449539185,"54":-1.278712272644043,"55":0.9277369976043701,"56":-0.2831611931324005,"57":0.29724615812301636,"58":-0.7454865574836731,"59":0.011232786811888218,"60":1.3416715860366821,"61":-0.8446559906005859,"62":0.1905236840248108,"63":0.6656379699707031,"64":0.9756795763969421,"65":0.1776394098997116,"66":1.1615025997161865,"67":0.6269643902778625,"68":0.2834508717060089,"69":-1.4691956043243408,"70":0.9582866430282593,"71":-0.6472014784812927,"72":-0.06371581554412842,"73":0.562204897403717,"74":1.0740463733673096,"75":-1.5306938886642456,"76":0.10043839365243912,"77":0.7816051244735718,"78":-0.6575645804405212,"79":-0.6494361758232117,"80":-0.5246844291687012,"81":0.26496145129203796,"82":0.0038969782181084156,"83":-0.7566825151443481,"84":0.09663237631320953,"85":-0.5632432103157043,"86":0.5857248306274414,"87":-0.9554826021194458,"88":0.7690632343292236,"89":-0.7273090481758118,"90":0.03110319934785366,"91":-0.16234633326530457,"92":-0.07551611214876175,"93":0.13291455805301666,"94":0.6661919951438904,"95":0.9617941975593567,"96":1.4571092128753662,"97":-1.506754755973816,"98":-0.34708186984062195,"99":-1.5511791706085205,"100":-0.7643800973892212,"101":0.9168793559074402,"102":-1.288201093673706,"103":1.0280005931854248,"104":0.4444875419139862,"105":0.6792889833450317,"106":0.047617923468351364,"107":-0.2379382699728012,"108":-1.3004719018936157,"109":-0.6980912089347839,"110":-1.0423129796981812,"111":-0.9900882840156555,"112":1.59639310836792,"113":-0.2825266122817993,"114":-0.613865852355957,"115":-0.3499518036842346,"116":0.2770763039588928,"117":0.3425062298774719,"118":-0.9635218381881714,"119":-0.9393295645713806,"120":1.5359771251678467,"121":0.09172283113002777,"122":-0.20513130724430084,"123":-0.3229593336582184,"124":0.955980658531189,"125":-1.2747693061828613,"126":0.15262162685394287,"127":0.45173022150993347,"128":-0.28229567408561707,"129":0.24121063947677612,"130":0.39335936307907104,"131":1.365722894668579,"132":0.04389358311891556,"133":-0.6002501249313354,"134":0.5271452069282532,"135":-0.2970702052116394,"136":-0.2057490348815918,"137":-0.6300274729728699,"138":0.66037917137146,"139":-0.4287564158439636,"140":-0.3370853364467621,"141":-0.31270477175712585,"142":0.25864091515541077,"143":0.663709282875061,"144":-0.4933079183101654,"145":-0.25874412059783936,"146":-0.3043075501918793,"147":0.5151979923248291,"148":-0.22470737993717194,"149":0.5556901693344116,"150":-0.007368800695985556,"151":-0.37310850620269775,"152":-0.6825199127197266,"153":-0.08023539930582047,"154":-0.01949220336973667,"155":-0.022332722321152687,"156":-0.9439656734466553,"157":0.03648808225989342,"158":0.21000486612319946,"159":0.029899554327130318,"160":-0.4163576364517212,"161":0.3308190405368805,"162":0.6332100629806519,"163":-0.24292811751365662,"164":-0.2842738926410675,"165":0.052924178540706635,"166":-0.3214324116706848,"167":-0.07383914291858673,"168":0.5477703809738159,"169":0.2697027325630188,"170":-0.3159777522087097,"171":0.36533865332603455,"172":0.6486920118331909,"173":-0.8535162210464478,"174":0.34927433729171753,"175":-0.5502777099609375,"176":0.8028660416603088,"177":0.17252446711063385,"178":-0.8792275190353394,"179":0.13051410019397736,"180":-0.36742377281188965,"181":-0.27509254217147827,"182":-0.3421564996242523,"183":0.10107049345970154,"184":-0.9322641491889954,"185":-0.0962904766201973,"186":-1.071889877319336,"187":-0.055101439356803894,"188":-0.15574298799037933,"189":-0.08093999326229095,"190":-0.13541147112846375,"191":0.5872661471366882,"192":-0.36982595920562744,"193":-0.13741597533226013,"194":-0.3230606019496918,"195":0.4010373055934906,"196":-0.13813991844654083,"197":-0.5446761846542358,"198":-0.14726436138153076,"199":-0.425456166267395,"200":0.33950644731521606,"201":-0.8732173442840576,"202":0.5052608847618103,"203":-0.6603001356124878,"204":0.3197140097618103,"205":-0.43592768907546997,"206":0.2971651256084442,"207":0.030071061104536057,"208":0.3566058576107025,"209":0.9250340461730957,"210":0.15736061334609985,"211":-0.33624735474586487,"212":-0.6345083117485046,"213":0.06758125871419907,"214":0.5439428091049194,"215":-0.18633753061294556,"216":-0.6513647437095642,"217":0.5925154685974121,"218":-1.181168556213379,"219":-0.03950124606490135,"220":-0.709473729133606,"221":0.8695966005325317,"222":-0.7945548295974731,"223":0.5928857922554016,"224":-0.49607089161872864,"225":-0.21992118656635284,"226":-0.4939027726650238,"227":0.9136485457420349,"228":0.008529233746230602,"229":0.3527012765407562,"230":-0.3486778736114502,"231":-0.2682008743286133,"232":-0.4794987440109253,"233":0.19510194659233093,"234":-0.19223690032958984,"235":-0.5191439986228943,"236":-0.09618312120437622,"237":-0.4275508522987366,"238":0.026224972680211067,"239":-0.801834225654602,"240":0.21261093020439148,"241":-0.5619081854820251,"242":0.3620947003364563,"243":-0.4591841399669647,"244":0.17441444098949432,"245":-0.10304131358861923,"246":0.019756343215703964,"247":0.08030030131340027,"248":-0.8433879613876343,"249":0.005282217636704445,"250":-0.018738005310297012,"251":-0.06493527442216873,"252":-1.1289763450622559,"253":0.22578997910022736,"254":0.44365692138671875,"255":0.11011490225791931,"256":-0.8234211206436157,"257":0.4893983006477356,"258":-1.5408129692077637,"259":0.4905683696269989,"260":0.47818607091903687,"261":-0.8635373115539551,"262":0.1635168492794037,"263":0.18369725346565247,"264":0.34096845984458923,"265":0.4470811188220978,"266":0.34344059228897095,"267":-0.6393105387687683,"268":0.17551037669181824,"269":-0.8522328734397888,"270":-0.19592496752738953,"271":-0.6781290769577026,"272":0.7766621708869934,"273":0.08350931107997894,"274":0.9853008985519409,"275":-1.3093008995056152,"276":0.2567843198776245,"277":-0.5056379437446594,"278":1.3413764238357544,"279":0.6935172080993652,"280":-0.24942243099212646,"281":0.2979438900947571,"282":-1.0550642013549805,"283":0.3690173327922821,"284":1.447511911392212,"285":0.2658616900444031,"286":0.32480546832084656,"287":-0.0432206466794014,"288":-0.993197500705719,"289":0.9686247110366821,"290":0.2891494631767273,"291":-1.1175700426101685,"292":-0.044800568372011185,"293":0.26414233446121216,"294":-0.2888411581516266,"295":-0.6561823487281799,"296":0.2079392820596695,"297":0.20542879402637482,"298":-0.22306177020072937,"299":0.19635921716690063,"300":0.2663514316082001,"301":-0.2142351269721985,"302":-0.571356475353241,"303":0.443526953458786,"304":0.004069934599101543,"305":-0.6427174210548401,"306":0.3022153675556183,"307":0.20413565635681152,"308":0.6567400097846985,"309":-0.7088739275932312,"310":-0.8897282481193542,"311":0.7840188145637512,"312":-0.2123102843761444,"313":0.7485080361366272,"314":-0.6752954721450806,"315":0.7932665348052979,"316":-0.2500687837600708,"317":0.7517068386077881,"318":0.4229844808578491,"319":0.7992224097251892,"320":0.2150437831878662,"321":-0.43426430225372314,"322":-0.34057387709617615,"323":0.01929963380098343,"324":0.4120379388332367,"325":-0.46850550174713135,"326":-0.9327347874641418,"327":0.16590678691864014,"328":0.39481213688850403,"329":-0.3330082595348358,"330":-0.4401578903198242,"331":0.11014281958341599,"332":-0.51542067527771,"333":-0.027813881635665894,"334":-0.5520735383033752,"335":0.38679763674736023,"336":-0.39667069911956787,"337":0.3156847655773163,"338":-0.4479287564754486,"339":0.0830291360616684,"340":-0.09242436289787292,"341":0.09829659014940262,"342":-0.9485138654708862,"343":-0.8613744974136353,"344":1.2180638313293457,"345":0.015970470383763313,"346":0.021406065672636032,"347":-1.060078740119934,"348":-0.07709069550037384,"349":1.0525206327438354,"350":-1.0477463006973267,"351":0.11865737289190292,"352":0.07504281401634216,"353":-0.5572746396064758,"354":-0.0533793680369854,"355":0.8005313277244568,"356":0.6267224550247192,"357":1.0099272727966309,"358":1.0383187532424927,"359":-0.06744226068258286,"360":-0.12391297519207001,"361":0.7633405327796936,"362":0.27136489748954773,"363":-0.5664496421813965,"364":-0.9006031155586243,"365":0.0808400809764862,"366":0.418005108833313,"367":-0.23958545923233032,"368":-0.7102290987968445,"369":0.618713915348053,"370":-1.1614940166473389,"371":-0.225803941488266,"372":-0.6722508072853088,"373":0.9075979590415955,"374":-0.9494892358779907,"375":0.674385666847229,"376":-0.5859381556510925,"377":-0.3208678960800171,"378":-0.5630894303321838,"379":0.9636040925979614}},"outputHidden":{"rows":20,"columns":20,"weights":{"0":-0.42553654313087463,"1":-0.24697962403297424,"2":0.12428445369005203,"3":0.02741788513958454,"4":-0.44618791341781616,"5":-1.133289098739624,"6":0.3798971474170685,"7":-0.47702470421791077,"8":0.6558942198753357,"9":0.15694363415241241,"10":-0.44918185472488403,"11":0.08118493109941483,"12":0.5516893267631531,"13":-0.8228359222412109,"14":0.4770609140396118,"15":-0.602213978767395,"16":0.08973962068557739,"17":-0.2740345895290375,"18":0.45658057928085327,"19":0.025043340399861336,"20":-1.2926983833312988,"21":-0.7131872177124023,"22":1.291232705116272,"23":0.914289116859436,"24":-1.192029595375061,"25":-0.09386622905731201,"26":0.9552284479141235,"27":-0.9437772631645203,"28":0.7952002882957458,"29":-0.4206424951553345,"30":-1.0251370668411255,"31":0.10843097418546677,"32":1.0484791994094849,"33":-1.1537744998931885,"34":0.6929677128791809,"35":-1.3875935077667236,"36":-0.14515309035778046,"37":-1.0410990715026855,"38":0.8902614116668701,"39":0.16388960182666779,"40":-0.12286151200532913,"41":0.32609108090400696,"42":0.2702130973339081,"43":-0.6238390207290649,"44":0.004553117323666811,"45":-0.13054455816745758,"46":-0.12501966953277588,"47":0.08795884251594543,"48":-0.26092851161956787,"49":0.3419533967971802,"50":-0.07685106247663498,"51":-0.1320432871580124,"52":0.05762862041592598,"53":-0.1176566407084465,"54":-0.479250967502594,"55":-0.002874372061342001,"56":-0.6612160205841064,"57":-0.060078296810388565,"58":1.1836211681365967,"59":-0.17095398902893066,"60":-1.1813825368881226,"61":-0.9657254219055176,"62":1.4622441530227661,"63":0.7639256715774536,"64":-1.188016653060913,"65":-1.1333309412002563,"66":0.7625324130058289,"67":-0.44271788001060486,"68":0.9959733486175537,"69":-0.9830495119094849,"70":-1.2340378761291504,"71":-0.5625160336494446,"72":0.6351456642150879,"73":0.2027047872543335,"74":0.007250531110912561,"75":-1.2814602851867676,"76":-0.5575885772705078,"77":-0.4021855592727661,"78":0.7342012524604797,"79":-0.5485334396362305,"80":-0.3728349208831787,"81":-0.3501719832420349,"82":0.04276292771100998,"83":0.3878036439418793,"84":-0.549578070640564,"85":-0.9772811532020569,"86":0.8196865320205688,"87":-0.4289188086986542,"88":0.6911166906356812,"89":-0.2844359576702118,"90":-0.7733554244041443,"91":0.506369411945343,"92":0.8999703526496887,"93":-1.0615922212600708,"94":1.2341828346252441,"95":-0.4388248920440674,"96":-0.1978452205657959,"97":-0.2561544179916382,"98":0.9378231167793274,"99":0.5577532052993774,"100":-0.1303420215845108,"101":0.0010161424288526177,"102":-0.6902470588684082,"103":0.45281538367271423,"104":-0.08302958309650421,"105":-0.9735367298126221,"106":0.4122728407382965,"107":0.22748219966888428,"108":-0.19671642780303955,"109":0.1851908564567566,"110":-0.238607257604599,"111":0.559556782245636,"112":-0.11226782202720642,"113":-0.0032243020832538605,"114":0.18692775070667267,"115":-0.06299052387475967,"116":0.06519193947315216,"117":0.067452073097229,"118":0.4875011146068573,"119":0.5263302326202393,"120":-0.2420281320810318,"121":-0.38156658411026,"122":-0.1682916134595871,"123":-0.39629635214805603,"124":-0.19541078805923462,"125":-0.8474813103675842,"126":1.0577601194381714,"127":-0.47909408807754517,"128":0.44500213861465454,"129":-0.6343495845794678,"130":-0.23976673185825348,"131":0.6016660332679749,"132":0.19345258176326752,"133":-0.735112726688385,"134":0.9255999326705933,"135":-0.007408378180116415,"136":-1.2648552656173706,"137":-0.22333891689777374,"138":0.7894538640975952,"139":0.7975636124610901,"140":-0.7402652502059937,"141":-0.7565022706985474,"142":0.907170832157135,"143":1.1806708574295044,"144":-0.8380471467971802,"145":-0.4033529758453369,"146":0.9731557965278625,"147":-0.965640127658844,"148":0.8050846457481384,"149":-0.4807358384132385,"150":-0.7830955386161804,"151":0.7341511249542236,"152":0.7914913892745972,"153":-1.0195307731628418,"154":0.7996565699577332,"155":-0.7706301808357239,"156":-0.10454143583774567,"157":-0.6762063503265381,"158":0.4040974974632263,"159":0.752821147441864,"160":-1.264134168624878,"161":-0.8255497813224792,"162":0.7344289422035217,"163":0.6633975505828857,"164":-0.9798969626426697,"165":0.21746045351028442,"166":1.189126968383789,"167":-0.9671428203582764,"168":1.153855323791504,"169":-0.7679413557052612,"170":-0.9836337566375732,"171":0.39969751238822937,"172":0.8985668420791626,"173":-1.2107681035995483,"174":1.0347380638122559,"175":-1.0964637994766235,"176":0.05298114940524101,"177":-0.5824902653694153,"178":0.4752153158187866,"179":0.3499271273612976,"180":-1.1503592729568481,"181":-0.7772971987724304,"182":0.8666139245033264,"183":0.7191434502601624,"184":-1.102518916130066,"185":0.1796485334634781,"186":1.1772911548614502,"187":-0.9797229170799255,"188":0.8831990957260132,"189":-0.6730024814605713,"190":-1.0422699451446533,"191":0.6635302901268005,"192":0.07626745849847794,"193":-1.0299897193908691,"194":1.2387561798095703,"195":-1.0241724252700806,"196":-1.0755234956741333,"197":-0.7099308967590332,"198":1.4423189163208008,"199":0.7074438333511353,"200":-0.9372952580451965,"201":-0.742827296257019,"202":0.4409812092781067,"203":0.3263074457645416,"204":-1.2112054824829102,"205":-0.18238802254199982,"206":0.7088722586631775,"207":-0.9932510256767273,"208":0.9533256888389587,"209":-0.6513128280639648,"210":-1.2803086042404175,"211":0.4310925006866455,"212":1.1684739589691162,"213":-0.8709154725074768,"214":0.9343955516815186,"215":-0.9968899488449097,"216":-0.13709653913974762,"217":-0.6688171029090881,"218":0.722152590751648,"219":0.4005183279514313,"220":-0.7908284068107605,"221":-0.631735622882843,"222":-0.2974952161312103,"223":-0.06747950613498688,"224":-0.8028514385223389,"225":-0.22395260632038116,"226":-0.4896685481071472,"227":-0.6866641044616699,"228":0.36815837025642395,"229":-0.6964717507362366,"230":-0.8737280368804932,"231":-0.2882503271102905,"232":0.5722164511680603,"233":-0.45298683643341064,"234":0.09366993606090546,"235":-0.8379283547401428,"236":-0.8380379676818848,"237":-0.6348495483398438,"238":0.7062810063362122,"239":-0.2929600775241852,"240":-0.7544119358062744,"241":-0.3099779188632965,"242":0.869414746761322,"243":0.8108459711074829,"244":-0.9185709953308105,"245":0.3409551680088043,"246":0.9366229772567749,"247":-0.5872757434844971,"248":0.6018801331520081,"249":-0.832427442073822,"250":-0.8291624188423157,"251":0.5985410213470459,"252":0.5425253510475159,"253":-0.7742139101028442,"254":1.2862964868545532,"255":-0.7958183288574219,"256":-1.049830436706543,"257":-0.5739948153495789,"258":1.3674579858779907,"259":0.5937585234642029,"260":-0.6755486130714417,"261":-0.12081412225961685,"262":-0.19309139251708984,"263":0.7520239949226379,"264":-0.44232144951820374,"265":0.3714389204978943,"266":-0.8319298624992371,"267":-0.4044457674026489,"268":0.47930288314819336,"269":-0.3547380566596985,"270":-0.4809320271015167,"271":-1.1985677480697632,"272":0.7608605623245239,"273":0.0207130778580904,"274":-0.34468215703964233,"275":-0.6967377066612244,"276":-0.29817309975624084,"277":-0.8197801113128662,"278":0.04345034807920456,"279":-1.3145020008087158,"280":-0.5720162987709045,"281":-0.5514430999755859,"282":0.9938128590583801,"283":1.2199150323867798,"284":-0.6225468516349792,"285":1.5271999835968018,"286":-0.2730778157711029,"287":-0.5724195241928101,"288":0.4749720096588135,"289":-0.8200539946556091,"290":-0.3873489797115326,"291":-0.1919756829738617,"292":0.6009709239006042,"293":-0.5057761073112488,"294":-0.603285014629364,"295":-0.6857335567474365,"296":-0.24776113033294678,"297":-0.354665607213974,"298":-0.2917405366897583,"299":-0.15358750522136688,"300":-0.4118990898132324,"301":-0.37779396772384644,"302":0.6624383330345154,"303":0.10766729712486267,"304":-0.23797200620174408,"305":-0.1230456754565239,"306":0.007304175291210413,"307":-0.7625440359115601,"308":0.9640113711357117,"309":0.000503971183206886,"310":-0.44137638807296753,"311":0.11518649011850357,"312":0.8974682092666626,"313":-1.1795083284378052,"314":0.8427639007568359,"315":-0.46318015456199646,"316":-0.11378032714128494,"317":-0.11034101992845535,"318":0.9187461137771606,"319":0.170249342918396,"320":-0.5792133212089539,"321":-0.22889231145381927,"322":0.24961893260478973,"323":0.9742957949638367,"324":-0.6599084734916687,"325":-0.25457385182380676,"326":-0.3929109275341034,"327":-0.45443135499954224,"328":0.7011229395866394,"329":-0.8932810425758362,"330":-0.47132402658462524,"331":0.22258761525154114,"332":0.8199784755706787,"333":0.37250369787216187,"334":-0.05048020929098129,"335":-0.8250606656074524,"336":0.8096454739570618,"337":-0.7162876129150391,"338":0.35109373927116394,"339":0.18559645116329193,"340":-1.889396071434021,"341":-1.394405484199524,"342":0.8435878157615662,"343":0.5584721565246582,"344":-1.697471022605896,"345":-0.06260830909013748,"346":0.4175874888896942,"347":-1.0683555603027344,"348":0.9909271001815796,"349":-1.1271220445632935,"350":-1.4741504192352295,"351":0.3354826867580414,"352":1.2752540111541748,"353":-0.7666552662849426,"354":0.8296981453895569,"355":-2.0186800956726074,"356":-0.5643186569213867,"357":-0.5000102519989014,"358":0.6970944404602051,"359":0.2544355094432831,"360":0.04572552815079689,"361":0.04241447150707245,"362":-0.27125680446624756,"363":0.16920003294944763,"364":0.38293230533599854,"365":-0.37512722611427307,"366":-0.3774372935295105,"367":0.07251888513565063,"368":-0.10444311797618866,"369":0.1274455040693283,"370":0.38902831077575684,"371":-0.7490876317024231,"372":0.044731512665748596,"373":0.20222784578800201,"374":-0.6061169505119324,"375":0.22141599655151367,"376":0.05737028270959854,"377":0.6018846035003662,"378":-0.515778660774231,"379":-0.8447762131690979,"380":-0.6827055811882019,"381":-0.5848193168640137,"382":-0.12038379162549973,"383":-0.07303580641746521,"384":-0.7279419898986816,"385":0.15517131984233856,"386":-0.4804462194442749,"387":-0.5391104221343994,"388":0.41100388765335083,"389":-0.6457920074462891,"390":-0.7151772975921631,"391":-0.14431479573249817,"392":0.5900686979293823,"393":-0.4395354092121124,"394":-0.02582029439508915,"395":-0.7186135649681091,"396":-0.7907126545906067,"397":-0.5875502228736877,"398":0.6723834872245789,"399":-0.22289034724235535}},"outputBias":{"rows":20,"columns":1,"weights":{"0":0.7049626708030701,"1":-0.6623536348342896,"2":-0.31182432174682617,"3":-0.8551927208900452,"4":0.49905726313591003,"5":0.34567463397979736,"6":0.2820751667022705,"7":-0.276788592338562,"8":-0.1868911236524582,"9":-0.7942735552787781,"10":-0.1428404152393341,"11":-0.5930150747299194,"12":-0.5002767443656921,"13":0.03435542434453964,"14":-0.08139581233263016,"15":0.38121116161346436,"16":-1.0344789028167725,"17":-0.8522002696990967,"18":-0.6846386790275574,"19":-0.6313201189041138}},"cellActivationMatrix":{"rows":20,"columns":19,"weights":{"0":-0.6342641711235046,"1":0.33459964394569397,"2":-0.24674978852272034,"3":0.4848135709762573,"4":-0.6993026733398438,"5":0.09698615223169327,"6":0.7863970994949341,"7":-0.15697315335273743,"8":-0.5958247780799866,"9":0.45512327551841736,"10":0.6560170650482178,"11":-0.8909953832626343,"12":-0.4205373227596283,"13":-0.2277410924434662,"14":0.5741585493087769,"15":-0.031449366360902786,"16":0.5097342133522034,"17":0.8636412620544434,"18":-0.40905705094337463,"19":0.13732954859733582,"20":0.7900061011314392,"21":-0.7747230529785156,"22":-0.18287618458271027,"23":-0.3637620210647583,"24":0.26220202445983887,"25":0.33390116691589355,"26":-0.8247295022010803,"27":0.17369404435157776,"28":-0.2352612465620041,"29":0.569936990737915,"30":-0.6387086510658264,"31":0.3256680369377136,"32":-0.7230324745178223,"33":0.2339513748884201,"34":-0.435413658618927,"35":-0.2851855754852295,"36":0.6542147397994995,"37":0.29004329442977905,"38":-0.209757462143898,"39":-0.382594496011734,"40":-0.3110784590244293,"41":1.5566725730895996,"42":0.14011703431606293,"43":0.2301059067249298,"44":1.2639105319976807,"45":0.13189959526062012,"46":0.1315629482269287,"47":-0.08040809631347656,"48":-0.2560146450996399,"49":-1.3354192972183228,"50":-0.46236690878868103,"51":0.08630599081516266,"52":-0.6898855566978455,"53":-0.8355674147605896,"54":-0.17491774260997772,"55":0.31366997957229614,"56":-0.1576484739780426,"57":-0.009886442683637142,"58":0.336785227060318,"59":-0.07679338753223419,"60":0.36621177196502686,"61":-0.8986077308654785,"62":-0.21218858659267426,"63":1.036363124847412,"64":-0.2619699239730835,"65":0.28571197390556335,"66":0.1281013935804367,"67":0.7688507437705994,"68":-0.66239333152771,"69":-0.1679994761943817,"70":-0.17917321622371674,"71":-1.6689791679382324,"72":-0.2958076596260071,"73":-0.23306351900100708,"74":1.0401660203933716,"75":-0.21777160465717316,"76":-0.7736927270889282,"77":0.055264391005039215,"78":-0.04554779455065727,"79":0.4688257873058319,"80":-0.6881544589996338,"81":-0.11946703493595123,"82":0.9342146515846252,"83":0.04678627848625183,"84":-0.6471912264823914,"85":0.4875791072845459,"86":0.8579349517822266,"87":-1.202409267425537,"88":-0.2887743413448334,"89":-0.16331563889980316,"90":0.34233909845352173,"91":0.14732420444488525,"92":0.6582801342010498,"93":0.7856985330581665,"94":-0.3531489968299866,"95":0.1279624104499817,"96":0.1925862431526184,"97":-0.34998586773872375,"98":-0.27475297451019287,"99":-0.46908459067344666,"100":-0.33707380294799805,"101":0.42073991894721985,"102":-0.24580907821655273,"103":0.22406348586082458,"104":-0.09352824836969376,"105":0.789788007736206,"106":-0.8022338151931763,"107":0.2996211349964142,"108":-0.28336411714553833,"109":-0.4437633156776428,"110":-0.03475436940789223,"111":-0.2517855167388916,"112":0.5259270071983337,"113":0.4352858066558838,"114":-0.7186179757118225,"115":-0.5408886671066284,"116":0.7312143445014954,"117":2.2613561153411865,"118":-0.07467298954725266,"119":-0.4151763617992401,"120":-0.03347653150558472,"121":0.16012853384017944,"122":-0.8091453909873962,"123":0.7421172857284546,"124":0.03821207210421562,"125":0.3426642417907715,"126":-0.9163375496864319,"127":0.22572213411331177,"128":-0.060094065964221954,"129":-0.06329498440027237,"130":0.7619227170944214,"131":-0.21336941421031952,"132":-1.7577340602874756,"133":-0.5065549612045288,"134":0.21503110229969025,"135":0.07254999130964279,"136":0.04364851117134094,"137":-0.24104298651218414,"138":0.28768855333328247,"139":0.18874160945415497,"140":0.006452097557485104,"141":-0.4461473524570465,"142":-0.08848141878843307,"143":0.4576740562915802,"144":-0.5996144413948059,"145":-0.014650844968855381,"146":0.014975794591009617,"147":-0.06060772389173508,"148":0.14236502349376678,"149":0.2986176908016205,"150":0.2157382220029831,"151":-0.006657119374722242,"152":0.8233286142349243,"153":0.09507618099451065,"154":-0.392240434885025,"155":-0.3082577884197235,"156":-0.010039509274065495,"157":-0.05972776561975479,"158":-0.3021073341369629,"159":-0.15054872632026672,"160":0.565994918346405,"161":-0.28380435705184937,"162":-0.22147712111473083,"163":-0.02022385224699974,"164":0.36335596442222595,"165":-0.08536241203546524,"166":-0.5693671703338623,"167":-0.3048923909664154,"168":-0.6144602298736572,"169":-0.20382821559906006,"170":0.3174941837787628,"171":-0.623626708984375,"172":0.3978896737098694,"173":-0.07214221358299255,"174":0.2616683542728424,"175":-0.18913261592388153,"176":0.3539907932281494,"177":-0.14979788661003113,"178":-0.24144217371940613,"179":-0.4443155527114868,"180":0.42753684520721436,"181":0.2649197280406952,"182":0.2782484292984009,"183":-0.35877713561058044,"184":-0.3707084059715271,"185":0.761685848236084,"186":-0.21080581843852997,"187":0.3976864218711853,"188":0.29480504989624023,"189":-0.29108545184135437,"190":-0.7585071921348572,"191":0.22710083425045013,"192":-0.14576788246631622,"193":0.29228687286376953,"194":-0.5149246454238892,"195":0.09881102293729782,"196":0.6541544795036316,"197":-0.07335824519395828,"198":-0.652440071105957,"199":0.3745468854904175,"200":0.7485347986221313,"201":-0.9794800877571106,"202":-0.2935507893562317,"203":-0.26543277502059937,"204":0.24614520370960236,"205":-0.14428207278251648,"206":0.5653063058853149,"207":0.7088136672973633,"208":-0.3796975910663605,"209":-1.2128605842590332,"210":-0.6446869969367981,"211":0.3485502600669861,"212":0.6321574449539185,"213":0.2254500538110733,"214":-0.2774701416492462,"215":-0.21402309834957123,"216":0.5265790820121765,"217":-1.2342536449432373,"218":0.0073766158893704414,"219":-0.23700354993343353,"220":0.006229944061487913,"221":-0.022293096408247948,"222":0.4387594759464264,"223":0.5802521109580994,"224":0.2272835224866867,"225":1.1614872217178345,"226":-0.3388381600379944,"227":-0.09245240688323975,"228":1.1861590147018433,"229":-0.012926159426569939,"230":-0.24972018599510193,"231":-0.8672777414321899,"232":0.38149455189704895,"233":-0.4914643466472626,"234":-0.2904399037361145,"235":-0.21333691477775574,"236":0.9340577721595764,"237":-0.5321837067604065,"238":-0.7208371758460999,"239":0.44434982538223267,"240":0.44250550866127014,"241":-0.22789791226387024,"242":0.32640761137008667,"243":-0.20960089564323425,"244":-0.9338235259056091,"245":-0.48654311895370483,"246":0.5500071048736572,"247":-0.14616140723228455,"248":-0.4434363543987274,"249":0.35382306575775146,"250":0.5995622873306274,"251":0.07107305526733398,"252":0.2314530313014984,"253":0.14747923612594604,"254":0.33225271105766296,"255":-0.654198944568634,"256":0.27386191487312317,"257":-0.03353956341743469,"258":-0.21124687790870667,"259":-0.4895603656768799,"260":-0.02870235964655876,"261":-0.2526691257953644,"262":-0.06985465437173843,"263":1.013818621635437,"264":0.20726141333580017,"265":-0.5702916979789734,"266":-0.427307665348053,"267":-0.6349368095397949,"268":0.6486155390739441,"269":-0.20978231728076935,"270":0.7880092859268188,"271":-0.22915682196617126,"272":-0.8406281471252441,"273":0.7441331744194031,"274":-0.6752488017082214,"275":-0.23576395213603973,"276":-0.887474775314331,"277":0.4963028132915497,"278":0.3232400417327881,"279":1.0173205137252808,"280":0.8752843141555786,"281":0.6506032347679138,"282":0.7983940243721008,"283":-0.9634714722633362,"284":0.2166810780763626,"285":-0.7158103585243225,"286":0.07261300086975098,"287":0.14702987670898438,"288":0.40513429045677185,"289":-0.5913514494895935,"290":0.09884238243103027,"291":0.7820678949356079,"292":0.042977433651685715,"293":-0.6917763352394104,"294":0.3886195719242096,"295":0.8637520670890808,"296":-1.1328768730163574,"297":-0.4590516984462738,"298":-0.06343337893486023,"299":0.12374520301818848,"300":0.21652762591838837,"301":0.7231144905090332,"302":0.7308318614959717,"303":-0.45992326736450195,"304":0.43657854199409485,"305":0.820220410823822,"306":-0.5055927634239197,"307":-0.36713719367980957,"308":-0.39643368124961853,"309":0.4226743280887604,"310":0.03274523839354515,"311":-0.525865912437439,"312":0.4520086348056793,"313":-0.03491051122546196,"314":0.1074661910533905,"315":0.054672323167324066,"316":0.2512924075126648,"317":-0.4280785322189331,"318":-0.2431236207485199,"319":-0.5420292019844055,"320":-0.3784956634044647,"321":-0.020598577335476875,"322":0.12875479459762573,"323":-0.8529990911483765,"324":0.12471019476652145,"325":0.25044360756874084,"326":0.5779159069061279,"327":-0.5070132613182068,"328":0.5873717665672302,"329":0.33418363332748413,"330":0.021898366510868073,"331":-1.0162736177444458,"332":0.33406636118888855,"333":0.8974356055259705,"334":0.030983518809080124,"335":-0.40570947527885437,"336":0.03457432985305786,"337":0.06984824687242508,"338":0.05221450701355934,"339":1.1987618207931519,"340":0.24869796633720398,"341":-0.5444039702415466,"342":-0.7504251599311829,"343":-1.0579239130020142,"344":1.0512481927871704,"345":0.45700135827064514,"346":0.33396729826927185,"347":-0.9551005363464355,"348":-0.34277284145355225,"349":1.1940661668777466,"350":-0.6095922589302063,"351":0.5456758141517639,"352":-0.24454855918884277,"353":0.0527501255273819,"354":-0.45159831643104553,"355":0.9982256293296814,"356":0.5085346102714539,"357":0.7513588070869446,"358":0.6624259352684021,"359":-0.2800694406032562,"360":-0.5618925094604492,"361":-1.3576511144638062,"362":-0.6140773296356201,"363":0.5056953430175781,"364":0.8939807415008545,"365":-0.0081297867000103,"366":-0.35129019618034363,"367":-0.04330263286828995,"368":0.6952279806137085,"369":-1.2089507579803467,"370":0.22608259320259094,"371":0.0299201849848032,"372":-0.17937639355659485,"373":-0.09060213714838028,"374":0.5490394830703735,"375":0.42167580127716064,"376":0.35089731216430664,"377":1.0935750007629395,"378":-0.16950635612010956,"379":-0.2965307831764221}},"cellActivationHidden":{"rows":20,"columns":20,"weights":{"0":-1.1355761289596558,"1":-0.5784593224525452,"2":-0.6149768233299255,"3":-0.015006865374743938,"4":-1.1992859840393066,"5":-1.0133905410766602,"6":0.6885612607002258,"7":-0.8535774350166321,"8":0.7220216989517212,"9":-0.6564487814903259,"10":-1.371962308883667,"11":-0.06833034008741379,"12":1.2003955841064453,"13":-0.2872915267944336,"14":0.13829661905765533,"15":-1.1470985412597656,"16":-0.4485689699649811,"17":-1.1319867372512817,"18":1.109282374382019,"19":0.04224950820207596,"20":-0.6494628190994263,"21":-0.6781828999519348,"22":-0.12891235947608948,"23":-0.36177945137023926,"24":-0.7690894603729248,"25":-0.27567046880722046,"26":0.30604079365730286,"27":-0.6445350050926208,"28":0.2056340128183365,"29":-0.3893711566925049,"30":-0.9684789180755615,"31":-0.12547990679740906,"32":0.7273316383361816,"33":0.46851980686187744,"34":0.1172245591878891,"35":-0.8659940361976624,"36":-0.40696150064468384,"37":-0.7087278366088867,"38":0.5680362582206726,"39":-0.1867918223142624,"40":-0.3019932210445404,"41":-0.13295848667621613,"42":0.21109993755817413,"43":-0.06547578424215317,"44":-0.2614077627658844,"45":0.2982471287250519,"46":-0.7674250602722168,"47":-0.11282261461019516,"48":0.0558280423283577,"49":-0.13787907361984253,"50":-0.19056390225887299,"51":-0.5520094633102417,"52":0.259724497795105,"53":0.4079999327659607,"54":-0.35901907086372375,"55":-0.3364489674568176,"56":0.29097747802734375,"57":-0.14440059661865234,"58":-0.24149967730045319,"59":-0.6014370918273926,"60":-0.31013816595077515,"61":0.04404144361615181,"62":-0.5765534043312073,"63":-0.9770998954772949,"64":-0.37648117542266846,"65":-0.40629148483276367,"66":-0.13729238510131836,"67":0.5936293601989746,"68":-0.5402504205703735,"69":0.2595280110836029,"70":-0.5802702307701111,"71":-0.253785103559494,"72":0.20880800485610962,"73":0.01081986352801323,"74":0.2464686930179596,"75":-0.39613309502601624,"76":0.27529558539390564,"77":0.2321767359972,"78":-0.26645728945732117,"79":-0.20483006536960602,"80":-0.8932236433029175,"81":-0.8618020415306091,"82":-0.2462582290172577,"83":0.20537765324115753,"84":-1.0128231048583984,"85":-0.5849037766456604,"86":0.6342738270759583,"87":-0.8505688309669495,"88":0.7279070019721985,"89":-0.939920961856842,"90":-1.140073299407959,"91":-0.012919504195451736,"92":1.334176778793335,"93":0.14934276044368744,"94":0.1525530070066452,"95":-1.1870384216308594,"96":-0.0500333271920681,"97":-1.0836310386657715,"98":0.36816704273223877,"99":-0.009420211426913738,"100":-0.4211348295211792,"101":0.15078279376029968,"102":0.24991150200366974,"103":0.7257416844367981,"104":-0.2568952441215515,"105":0.6640932559967041,"106":-1.0533174276351929,"107":-0.014247767627239227,"108":-0.39131462574005127,"109":0.255297988653183,"110":-0.22282946109771729,"111":-1.4093230962753296,"112":0.2285299152135849,"113":0.42171424627304077,"114":-0.6559587121009827,"115":-0.39767518639564514,"116":1.115822434425354,"117":-0.07237239181995392,"118":-1.945886492729187,"119":-1.5799586772918701,"120":0.16779166460037231,"121":0.5978773236274719,"122":0.3872016668319702,"123":-0.17118309438228607,"124":0.07378620654344559,"125":0.7203028798103333,"126":-0.1096864864230156,"127":0.0030018251854926348,"128":-0.049605827778577805,"129":0.14291875064373016,"130":-0.08350450545549393,"131":-1.1653374433517456,"132":0.45503586530685425,"133":-0.1843138337135315,"134":-0.45717430114746094,"135":0.042547184973955154,"136":-0.5168910622596741,"137":0.1763267070055008,"138":-0.25389695167541504,"139":-1.0461112260818481,"140":-0.9632657170295715,"141":-0.9595404267311096,"142":-0.9037344455718994,"143":-0.44315066933631897,"144":-1.1022506952285767,"145":-0.20436924695968628,"146":0.2948754131793976,"147":-0.844433069229126,"148":1.0977033376693726,"149":-1.708221435546875,"150":-1.2283605337142944,"151":0.1875034123659134,"152":1.505464792251587,"153":-0.2528163194656372,"154":0.4859710931777954,"155":-1.0237318277359009,"156":-0.843539834022522,"157":-1.0968230962753296,"158":1.0561362504959106,"159":0.08749768137931824,"160":0.8855192065238953,"161":0.9657500982284546,"162":-0.04712697118520737,"163":-0.6020780205726624,"164":1.1505485773086548,"165":-0.16814443469047546,"166":-0.7572283148765564,"167":0.8886378407478333,"168":-1.0877673625946045,"169":1.291274905204773,"170":1.3616889715194702,"171":-0.4097987413406372,"172":-1.5134592056274414,"173":0.3918256461620331,"174":-1.0348864793777466,"175":1.1485368013381958,"176":0.1349119395017624,"177":1.1219395399093628,"178":-0.5280742049217224,"179":-0.4918861985206604,"180":-0.49301227927207947,"181":-1.0630512237548828,"182":0.42448410391807556,"183":0.7345357537269592,"184":-0.529448390007019,"185":0.4492608904838562,"186":0.6364954710006714,"187":-1.1039516925811768,"188":1.4757788181304932,"189":-2.3487257957458496,"190":-0.9059220552444458,"191":1.0728957653045654,"192":1.846645474433899,"193":-0.21725960075855255,"194":1.044167160987854,"195":-1.0878978967666626,"196":-0.5042771697044373,"197":-0.7758435606956482,"198":1.0667614936828613,"199":0.9761604070663452,"200":-0.7912812232971191,"201":-0.7132866978645325,"202":-0.33175158500671387,"203":0.05222829058766365,"204":-0.9837931990623474,"205":-0.6763616800308228,"206":0.608585774898529,"207":-0.904042661190033,"208":0.9131306409835815,"209":-0.6997496485710144,"210":-1.0823091268539429,"211":0.22644276916980743,"212":1.1277422904968262,"213":0.15855534374713898,"214":0.34516987204551697,"215":-0.8303238153457642,"216":0.4299486577510834,"217":-0.7524835467338562,"218":0.5224158763885498,"219":0.2639597952365875,"220":0.2069162130355835,"221":0.5143158435821533,"222":0.6212150454521179,"223":-0.21746830642223358,"224":0.16517026722431183,"225":0.5172255635261536,"226":-0.34108486771583557,"227":0.11540087312459946,"228":-0.06071034073829651,"229":0.045321788638830185,"230":0.14052292704582214,"231":-0.5945411920547485,"232":0.022904077544808388,"233":-0.10526467114686966,"234":-0.3254958391189575,"235":0.19997912645339966,"236":-0.24570761620998383,"237":0.31759488582611084,"238":-0.5274322628974915,"239":-0.503309965133667,"240":0.6959539651870728,"241":1.1071933507919312,"242":0.7104672789573669,"243":-0.22292999923229218,"244":0.8176532983779907,"245":0.4301425516605377,"246":-0.047056328505277634,"247":1.1602977514266968,"248":-1.4955247640609741,"249":1.3684277534484863,"250":1.1479599475860596,"251":-0.40664416551589966,"252":-1.614046573638916,"253":0.2884618937969208,"254":-0.48995494842529297,"255":0.8034589886665344,"256":-0.5104203224182129,"257":0.8021267056465149,"258":-0.1726415902376175,"259":-0.41536006331443787,"260":-0.8735107183456421,"261":-0.24358533322811127,"262":-0.4264465272426605,"263":0.37448814511299133,"264":-1.6236894130706787,"265":-0.7175332903862,"266":0.25440406799316406,"267":-0.6741863489151001,"268":0.9177333116531372,"269":-0.7800367474555969,"270":-1.6894447803497314,"271":-0.6570390462875366,"272":1.7860723733901978,"273":-0.42054373025894165,"274":0.2681901156902313,"275":-1.408510446548462,"276":0.2106064260005951,"277":-1.1300175189971924,"278":0.1770610809326172,"279":-0.8213048577308655,"280":0.17733991146087646,"281":0.7570705413818359,"282":0.00672212615609169,"283":-0.976982831954956,"284":0.14317506551742554,"285":-0.0849742740392685,"286":-0.5390236377716064,"287":0.23093640804290771,"288":-0.1286267787218094,"289":-0.3864293098449707,"290":0.24362583458423615,"291":-0.5869677066802979,"292":-0.07825274765491486,"293":-0.07971205562353134,"294":-0.21778744459152222,"295":0.2306390106678009,"296":-0.3575519919395447,"297":0.15161779522895813,"298":-0.6024013757705688,"299":-0.5235165953636169,"300":-0.9930456280708313,"301":-0.6433805227279663,"302":-0.7726140022277832,"303":0.13085418939590454,"304":-1.1730430126190186,"305":-0.8958865404129028,"306":0.6694822311401367,"307":-0.7214321494102478,"308":1.0118298530578613,"309":-0.8819206953048706,"310":-1.2448006868362427,"311":0.08414291590452194,"312":1.3267239332199097,"313":-0.14086881279945374,"314":0.2683408856391907,"315":-1.0735511779785156,"316":0.185796856880188,"317":-1.0971695184707642,"318":0.6568177938461304,"319":0.08467710018157959,"320":-0.23550674319267273,"321":-1.0217993259429932,"322":0.7016440629959106,"323":0.019678186625242233,"324":-0.26592305302619934,"325":0.15446686744689941,"326":0.8576619029045105,"327":-0.10387430340051651,"328":0.06262198835611343,"329":-0.14261454343795776,"330":-0.18005868792533875,"331":1.0217018127441406,"332":0.06300567835569382,"333":-0.1425333470106125,"334":0.9991835355758667,"335":-0.2167227566242218,"336":-0.03003230318427086,"337":-0.13380777835845947,"338":0.7579575777053833,"339":1.1205449104309082,"340":-0.7850605249404907,"341":-1.0469802618026733,"342":-0.5832343101501465,"343":-0.294695109128952,"344":-0.7553339600563049,"345":-0.5347883701324463,"346":0.4192701280117035,"347":-0.8575353622436523,"348":1.2035391330718994,"349":-1.1150586605072021,"350":-0.9412621855735779,"351":0.6688703894615173,"352":1.1270734071731567,"353":-0.40791743993759155,"354":0.8919030427932739,"355":-0.6719604730606079,"356":0.5807745456695557,"357":-0.8180961608886719,"358":0.3716293275356293,"359":0.5802024006843567,"360":0.29478394985198975,"361":0.4016450047492981,"362":0.74937504529953,"363":0.07794535160064697,"364":0.050727877765893936,"365":0.5176286697387695,"366":-0.4642440974712372,"367":0.26416483521461487,"368":-0.14873844385147095,"369":0.32783958315849304,"370":0.09247180074453354,"371":-0.504726231098175,"372":0.08370227366685867,"373":-0.008559150621294975,"374":-0.18142443895339966,"375":0.06126928701996803,"376":0.11257670074701309,"377":-0.051846060901880264,"378":-0.8678451180458069,"379":-0.5655571222305298,"380":0.1476636528968811,"381":0.32339438796043396,"382":0.5372047424316406,"383":-0.5418744683265686,"384":0.11836160719394684,"385":0.1925521194934845,"386":-0.01241401769220829,"387":0.15136229991912842,"388":-0.029974058270454407,"389":-0.03402692824602127,"390":0.08078271895647049,"391":-0.20406313240528107,"392":0.0478946790099144,"393":-0.20216910541057587,"394":0.04249485209584236,"395":0.16551943123340607,"396":-0.20257237553596497,"397":0.169963538646698,"398":-0.23539118468761444,"399":-0.1683679223060608}},"cellActivationBias":{"rows":20,"columns":1,"weights":{"0":0.9423761367797852,"1":0.6767676472663879,"2":0.1138400062918663,"3":-0.3122619688510895,"4":0.7722758054733276,"5":0.496873676776886,"6":-0.6183048486709595,"7":0.5837947726249695,"8":-0.8990898728370667,"9":0.8981013894081116,"10":0.5872671604156494,"11":-0.4929564595222473,"12":-1.1101704835891724,"13":-0.37578240036964417,"14":-0.2867400646209717,"15":0.8018267154693604,"16":0.31575652956962585,"17":0.8986274600028992,"18":-0.5053308606147766,"19":-0.3385259211063385}}},{"inputMatrix":{"rows":20,"columns":20,"weights":{"0":-1.0733814239501953,"1":0.41203922033309937,"2":1.5397791862487793,"3":0.5144804120063782,"4":-0.49696850776672363,"5":-0.32461732625961304,"6":1.2405732870101929,"7":-1.4784427881240845,"8":1.293731927871704,"9":-1.7412869930267334,"10":-0.5217370390892029,"11":0.3790648579597473,"12":1.646291971206665,"13":-0.061089176684617996,"14":1.4781686067581177,"15":-0.8683512806892395,"16":-1.2839739322662354,"17":-1.2107102870941162,"18":1.2162748575210571,"19":0.4316064119338989,"20":-2.0160839557647705,"21":0.41623830795288086,"22":-0.9141265749931335,"23":-0.14221419394016266,"24":-0.2192133069038391,"25":-1.9633307456970215,"26":0.9736058712005615,"27":0.8676264882087708,"28":-0.613939106464386,"29":0.2155107855796814,"30":0.4491093158721924,"31":0.10384109616279602,"32":-0.8343249559402466,"33":0.12535631656646729,"34":0.8981146812438965,"35":-1.2093873023986816,"36":0.2668880224227905,"37":0.6300671696662903,"38":0.8524554371833801,"39":0.00760722067207098,"40":0.007894990965723991,"41":0.2376665472984314,"42":0.012574752792716026,"43":0.7248541116714478,"44":-0.2224123179912567,"45":-0.7619108557701111,"46":1.2799383401870728,"47":-0.06635472178459167,"48":0.03604590520262718,"49":0.9239876866340637,"50":0.06918754428625107,"51":1.0340553522109985,"52":-0.06428949534893036,"53":1.334533929824829,"54":1.2765370607376099,"55":0.1740412414073944,"56":0.43942132592201233,"57":-0.055071067065000534,"58":0.5421424508094788,"59":0.9868766069412231,"60":-0.9977835416793823,"61":-0.18080860376358032,"62":0.21695628762245178,"63":0.14713850617408752,"64":-0.7366517186164856,"65":-1.9656869173049927,"66":-0.5696747899055481,"67":0.896928071975708,"68":-0.5027731657028198,"69":2.2770204544067383,"70":-0.2260035127401352,"71":-0.8681472539901733,"72":-0.9590967297554016,"73":-1.2504762411117554,"74":-0.50022292137146,"75":-0.9346316456794739,"76":0.2165515124797821,"77":0.9571655988693237,"78":-0.09836060553789139,"79":-0.9078046083450317,"80":-1.534794807434082,"81":-0.6859173774719238,"82":-0.4765573740005493,"83":-0.3828333020210266,"84":-0.971901535987854,"85":-0.18820078670978546,"86":0.5682392120361328,"87":-0.08821110427379608,"88":0.41305431723594666,"89":-1.0938875675201416,"90":-0.8039950132369995,"91":0.48304489254951477,"92":0.37809085845947266,"93":1.1977804899215698,"94":1.6632907390594482,"95":-0.7855859398841858,"96":-0.8751686215400696,"97":-0.5185962915420532,"98":1.094723105430603,"99":0.4428783357143402,"100":1.5070133209228516,"101":1.1581910848617554,"102":0.5319488048553467,"103":-0.37445202469825745,"104":1.788628101348877,"105":0.3116198182106018,"106":-0.9247667193412781,"107":0.7641586065292358,"108":-1.001089096069336,"109":0.5975662469863892,"110":1.4953573942184448,"111":-0.8981567025184631,"112":-0.7724471092224121,"113":-0.7912150025367737,"114":-0.9516274929046631,"115":0.6540926098823547,"116":-1.2127569913864136,"117":-0.23157478868961334,"118":0.677481472492218,"119":-0.9960007071495056,"120":-0.10398087650537491,"121":0.7601084113121033,"122":0.2248992919921875,"123":1.1696295738220215,"124":-0.23568092286586761,"125":-2.028017044067383,"126":1.4184809923171997,"127":0.372109591960907,"128":-0.23114313185214996,"129":0.7118401527404785,"130":0.3435375988483429,"131":0.23856642842292786,"132":0.8573927283287048,"133":2.434809923171997,"134":1.047226071357727,"135":0.412523090839386,"136":0.23797738552093506,"137":0.6303555965423584,"138":-0.48393741250038147,"139":0.25267454981803894,"140":1.91273832321167,"141":0.5521580576896667,"142":0.8684074878692627,"143":0.23925098776817322,"144":1.0052632093429565,"145":1.901237964630127,"146":-1.8562214374542236,"147":-0.2523403465747833,"148":-0.1168854683637619,"149":0.10525337606668472,"150":0.7093701362609863,"151":-0.09690190851688385,"152":0.37392458319664,"153":-0.523240327835083,"154":-1.5201332569122314,"155":0.7906962037086487,"156":0.059667859226465225,"157":-0.5060988068580627,"158":0.018787503242492676,"159":-0.1466202288866043,"160":-1.3083438873291016,"161":-0.5124974250793457,"162":-0.17250292003154755,"163":1.531548023223877,"164":-1.4798142910003662,"165":-0.7054839134216309,"166":1.1557855606079102,"167":-0.8961598873138428,"168":0.5747228264808655,"169":-2.0036630630493164,"170":-1.4372836351394653,"171":-0.5594313740730286,"172":1.4876961708068848,"173":0.013824679888784885,"174":0.8167470097541809,"175":-0.6194636225700378,"176":0.2398308962583542,"177":-2.110839366912842,"178":0.17382694780826569,"179":-0.46729302406311035,"180":-0.3174245059490204,"181":1.1930267810821533,"182":3.068873167037964,"183":3.476362943649292,"184":-0.08737066388130188,"185":1.0238698720932007,"186":2.3294363021850586,"187":0.2034909576177597,"188":0.04907069355249405,"189":1.7731554508209229,"190":0.3137402832508087,"191":0.8916776776313782,"192":-0.6649333238601685,"193":0.634089469909668,"194":0.8637422919273376,"195":0.6003151535987854,"196":-0.4695318043231964,"197":0.08112926781177521,"198":0.6331413984298706,"199":0.9620829224586487,"200":-1.384122610092163,"201":0.9144421219825745,"202":0.3658336102962494,"203":2.4612462520599365,"204":-0.063652403652668,"205":0.3429408669471741,"206":2.5505530834198,"207":0.403609961271286,"208":0.4122789204120636,"209":0.7993796467781067,"210":0.3938058912754059,"211":1.3220055103302002,"212":-0.44958698749542236,"213":1.756942629814148,"214":1.6918628215789795,"215":-0.09570011496543884,"216":0.5144396424293518,"217":0.3884302079677582,"218":0.41215428709983826,"219":1.4833437204360962,"220":-0.8520467281341553,"221":0.26844820380210876,"222":0.24916501343250275,"223":0.10717777162790298,"224":-0.8771834969520569,"225":-0.8873547315597534,"226":-0.36535483598709106,"227":-0.44795021414756775,"228":0.4601859152317047,"229":0.6195879578590393,"230":-0.8108704090118408,"231":-0.8227863311767578,"232":1.0245611667633057,"233":-0.3774910271167755,"234":0.38123613595962524,"235":-0.6377585530281067,"236":0.35179567337036133,"237":-0.6243535876274109,"238":0.8856123089790344,"239":-0.8106098771095276,"240":-1.7379308938980103,"241":-0.7496479749679565,"242":-0.697335422039032,"243":-0.5517649054527283,"244":-1.758051872253418,"245":-1.9491938352584839,"246":0.8111910223960876,"247":-0.2105110138654709,"248":-0.16234730184078217,"249":0.15805841982364655,"250":-1.0809013843536377,"251":-0.7125018835067749,"252":0.602207362651825,"253":-0.9028519988059998,"254":1.1328462362289429,"255":-2.0429375171661377,"256":1.4081941843032837,"257":-0.4291500747203827,"258":-0.2239815592765808,"259":-0.7577064037322998,"260":-0.6255366802215576,"261":-0.031741078943014145,"262":-2.4917802810668945,"263":-2.830475330352783,"264":-0.8813524842262268,"265":-3.441218137741089,"266":1.0906176567077637,"267":-0.9980841875076294,"268":0.9564774632453918,"269":-1.640228509902954,"270":-0.3104386627674103,"271":0.0403074249625206,"272":1.1197869777679443,"273":0.4275873899459839,"274":0.6283523440361023,"275":-0.7028223276138306,"276":-0.4712935984134674,"277":-0.12075451761484146,"278":0.21304307878017426,"279":0.08199456334114075,"280":-0.4479723274707794,"281":0.9253309369087219,"282":0.20252268016338348,"283":0.5756332278251648,"284":-0.30690887570381165,"285":-0.8485075831413269,"286":1.1774930953979492,"287":0.33582043647766113,"288":-0.2927047610282898,"289":-0.15067462623119354,"290":0.19933396577835083,"291":0.5689029097557068,"292":-0.19544506072998047,